DrugBank_ID,0,1,2,3,4,5,6,7,8,9,10,11,12,13,14,15,16,17,18,19,20,21,22,23,24,25,26,27,28,29,30,31,32,33,34,35,36,37,38,39,40,41,42,43,44,45,46,47,48,49,50,51,52,53,54,55,56,57,58,59,60,61,62,63,64,65,66,67,68,69,70,71,72,73,74,75,76,77,78,79,80,81,82,83,84,85,86,87,88,89,90,91,92,93,94,95,96,97,98,99
DB00862,0.17346403002738953,0.3016308546066284,-0.46760112047195435,-0.05698149651288986,-0.026056500151753426,0.21993054449558258,0.00340000307187438,-0.04247849062085152,-0.2244223654270172,0.06887046247720718,0.07385128736495972,0.2247607707977295,0.2340027093887329,-0.06313089281320572,0.1668827086687088,-0.08761036396026611,-0.23215626180171967,0.12504981458187103,-0.1696849763393402,-0.057230520993471146,0.04300911724567413,0.3423480987548828,-0.027404891327023506,0.09570402652025223,0.05908111110329628,-0.11477436125278473,-0.050592582672834396,-0.27989327907562256,-0.028355207294225693,-0.02606736309826374,0.07344697415828705,0.1216825470328331,0.07524365186691284,-0.1154569536447525,0.08935809135437012,-0.26125243306159973,0.03207864612340927,-0.23629099130630493,-0.17818208038806915,0.16298224031925201,-0.23070961236953735,-0.014707259833812714,-0.1452549397945404,-0.1420115977525711,-0.2773992121219635,-0.1621614247560501,0.16072210669517517,0.01915818080306053,-0.22668711841106415,-0.124687559902668,-0.21409331262111664,0.31389933824539185,-0.26725146174430847,-0.014813379384577274,-0.2007369101047516,0.31192636489868164,0.2529428005218506,-0.18760083615779877,0.03302804380655289,-0.10475817322731018,0.038164205849170685,0.027697235345840454,0.08714078366756439,0.21111136674880981,-0.0684727355837822,-0.10571970045566559,0.29868844151496887,-0.1845451444387436,-0.20900464057922363,0.011858905665576458,0.1161189153790474,0.07714511454105377,0.19876515865325928,-0.03871786966919899,-0.22491075098514557,-0.14510804414749146,-0.031196177005767822,0.17542310059070587,0.3131150007247925,-0.15948553383350372,0.02567046508193016,0.02602897398173809,-0.0931195542216301,-0.10062604397535324,0.04788295179605484,0.041662681847810745,0.03815646842122078,-0.14562125504016876,-0.33972856402397156,-0.17512187361717224,-0.016107305884361267,-0.09703441709280014,0.09153818339109421,0.042323511093854904,0.08739341795444489,-0.355752557516098,-0.15966956317424774,0.20134510099887848,0.07755087316036224,-0.13470333814620972
DB00966,0.1646461933851242,0.3029196262359619,-0.49549102783203125,-0.10022056102752686,-0.018851622939109802,0.221969872713089,-0.0035362564958631992,0.054157502949237823,-0.26431897282600403,0.004613643977791071,0.11082176119089127,0.1981094926595688,0.22988037765026093,-0.11918487399816513,0.16029568016529083,-0.12946820259094238,-0.20872406661510468,0.07594673335552216,-0.16375868022441864,-0.06825040280818939,0.041260235011577606,0.38672998547554016,0.011922566220164299,0.14041239023208618,-0.007605694234371185,-0.20198339223861694,-0.012121115811169147,-0.3297748267650604,-0.03283343464136124,-0.10302453488111496,0.05942923575639725,0.1661132127046585,0.02721765637397766,-0.18127329647541046,0.12631657719612122,-0.2959594130516052,0.04551047086715698,-0.3226401209831238,-0.21590352058410645,0.18160919845104218,-0.2344413846731186,0.0362466461956501,-0.11353393644094467,-0.14697343111038208,-0.2669898569583893,-0.16062816977500916,0.17174533009529114,0.02710072509944439,-0.3059685528278351,-0.19340215623378754,-0.2184804081916809,0.30130669474601746,-0.21090972423553467,-0.06062554195523262,-0.2003055214881897,0.31808432936668396,0.276223748922348,-0.2532319128513336,0.02888168953359127,-0.15204834938049316,0.027481500059366226,0.06285587698221207,0.017327383160591125,0.23585079610347748,-0.09607337415218353,-0.09147213399410248,0.33265042304992676,-0.20298247039318085,-0.19887465238571167,-0.04628625139594078,0.1802615076303482,0.1290077567100525,0.12934313714504242,-0.01357654295861721,-0.1801045686006546,-0.11407200247049332,-0.09407726675271988,0.1946343332529068,0.2866435647010803,-0.15031634271144867,0.009662827476859093,0.10593494772911072,-0.12164697796106339,-0.04491451755166054,0.08424700051546097,0.007304369006305933,-0.005062505137175322,-0.22529616951942444,-0.42976951599121094,-0.18418213725090027,0.0097226332873106,-0.11302892863750458,0.09180492162704468,0.05005563050508499,0.08571076393127441,-0.4006533622741699,-0.13819631934165955,0.20252953469753265,0.04981030896306038,-0.1321018934249878
DB00575,0.17414553463459015,0.3025732934474945,-0.46632757782936096,-0.048366401344537735,-0.02886677347123623,0.23986251652240753,0.007814687676727772,-0.06638317555189133,-0.22979550063610077,0.07090483605861664,0.07249049842357635,0.2274107038974762,0.242059126496315,-0.06136692315340042,0.16460683941841125,-0.07910096645355225,-0.23589234054088593,0.1276724487543106,-0.16884933412075043,-0.0640755370259285,0.045953553169965744,0.3350314795970917,-0.04165305942296982,0.0975494533777237,0.07884969562292099,-0.10680753737688065,-0.0706634446978569,-0.2803352475166321,-0.02491031028330326,-0.0009543480700813234,0.0937003567814827,0.1195332333445549,0.05215824767947197,-0.1294465810060501,0.07244860380887985,-0.262485533952713,0.05631214380264282,-0.2337222397327423,-0.18306781351566315,0.18102379143238068,-0.23290489614009857,-0.03163019195199013,-0.15526306629180908,-0.14958921074867249,-0.26074668765068054,-0.15859588980674744,0.1451106071472168,0.01737564243376255,-0.21648761630058289,-0.13063471019268036,-0.22207209467887878,0.3071340024471283,-0.2767588496208191,-0.0033734701573848724,-0.20820973813533783,0.32617878913879395,0.26150351762771606,-0.17959101498126984,0.041829027235507965,-0.10119607299566269,0.048285238444805145,0.042579930275678635,0.0747070387005806,0.2154177576303482,-0.048025548458099365,-0.10482762008905411,0.2753734886646271,-0.15476050972938538,-0.19798414409160614,0.03421609103679657,0.11304937303066254,0.10325329005718231,0.20544539391994476,-0.056580834090709686,-0.23166786134243011,-0.13150912523269653,-0.03483372554183006,0.1733652800321579,0.32118162512779236,-0.1636195033788681,0.0023585909511893988,0.037367112934589386,-0.09573088586330414,-0.1265259087085724,0.06337041407823563,0.07557403296232224,0.052614957094192505,-0.14492309093475342,-0.32761868834495544,-0.17259429395198822,-0.014817961491644382,-0.1022188663482666,0.06263125687837601,0.04355994611978531,0.10811041295528412,-0.35316380858421326,-0.15868447721004486,0.20657441020011902,0.08609312027692795,-0.1383935660123825
DB00806,0.15971294045448303,0.28191107511520386,-0.4546481966972351,-0.07574804872274399,-0.027281906455755234,0.2009952813386917,0.031384024769067764,-0.004252689424902201,-0.21288219094276428,0.04225904494524002,0.055759984999895096,0.21410410106182098,0.20029020309448242,-0.06383612006902695,0.15311019122600555,-0.108648382127285,-0.22473712265491486,0.1107606291770935,-0.1480272263288498,-0.07151320576667786,0.026386022567749023,0.33229780197143555,-0.026022594422101974,0.08463171124458313,0.02482665330171585,-0.12231458723545074,-0.03416156396269798,-0.25525355339050293,-0.028447672724723816,-0.03716040775179863,0.07067032158374786,0.12705811858177185,0.07122641056776047,-0.13366588950157166,0.09622315317392349,-0.2541927397251129,0.030339738354086876,-0.2207026481628418,-0.16133955121040344,0.1637807935476303,-0.1986781656742096,0.01382592786103487,-0.13935180008411407,-0.1163736954331398,-0.2594558894634247,-0.15046057105064392,0.14775969088077545,0.020150307565927505,-0.2121303379535675,-0.12563839554786682,-0.19393125176429749,0.29611945152282715,-0.2379305362701416,-0.02989952266216278,-0.1815115064382553,0.2987974286079407,0.23510465025901794,-0.1687740981578827,0.009215752594172955,-0.1229570060968399,0.050157345831394196,0.045108143240213394,0.0695836991071701,0.2099948227405548,-0.05688495561480522,-0.10706218332052231,0.3021281063556671,-0.17091584205627441,-0.18492352962493896,-0.007589195854961872,0.14020594954490662,0.08631428331136703,0.1695355325937271,-0.025508800521492958,-0.20997731387615204,-0.14078591763973236,-0.0341443195939064,0.175056591629982,0.28409117460250854,-0.1421954482793808,0.006277131848037243,0.04473868012428284,-0.09206089377403259,-0.06271984428167343,0.0575420968234539,0.032242290675640106,0.016762930899858475,-0.1580049693584442,-0.35724982619285583,-0.17108482122421265,-0.018215587362647057,-0.09117239713668823,0.08284836262464523,0.04440109059214592,0.08153380453586578,-0.33459219336509705,-0.14933589100837708,0.19070400297641754,0.07371364533901215,-0.12794552743434906
DB01242,0.17260487377643585,0.31013616919517517,-0.47759103775024414,-0.05996990203857422,-0.032541707158088684,0.2579369843006134,-0.016969822347164154,-0.04127797111868858,-0.2500825822353363,0.06942006945610046,0.08378022164106369,0.22815938293933868,0.2557232081890106,-0.08064199239015579,0.16478274762630463,-0.09004971385002136,-0.24504989385604858,0.10936874896287918,-0.1719960719347,-0.061465490609407425,0.05418066680431366,0.35634344816207886,-0.015921352431178093,0.11554751545190811,0.06081439554691315,-0.13110913336277008,-0.04254743456840515,-0.3105306923389435,-0.029164571315050125,-0.02946997806429863,0.090040422976017,0.12706726789474487,0.05012509971857071,-0.13978542387485504,0.08726559579372406,-0.27063772082328796,0.0592932254076004,-0.2706201672554016,-0.1944296807050705,0.17083202302455902,-0.2506573498249054,-0.01589708775281906,-0.13454924523830414,-0.176753431558609,-0.27467599511146545,-0.1587335467338562,0.15351316332817078,0.020820800215005875,-0.25875750184059143,-0.1492738425731659,-0.22583985328674316,0.3097400963306427,-0.26146477460861206,-0.016400480642914772,-0.2180800884962082,0.3305666744709015,0.27125003933906555,-0.21847319602966309,0.054102957248687744,-0.10014998912811279,0.03917926922440529,0.02449903078377247,0.05105605348944664,0.230667844414711,-0.07170815020799637,-0.09966623783111572,0.2809528112411499,-0.1757766306400299,-0.21442118287086487,0.008871931582689285,0.12345089763402939,0.10825764387845993,0.19266647100448608,-0.03130161389708519,-0.21217621862888336,-0.1340484470129013,-0.05086112022399902,0.17845577001571655,0.32810908555984497,-0.1656886786222458,0.01848428137600422,0.045388735830783844,-0.1030493900179863,-0.11486821621656418,0.06755686551332474,0.05401764065027237,0.033389296382665634,-0.15799419581890106,-0.355059415102005,-0.1782791018486023,-0.002015714067965746,-0.12312860041856766,0.055309880524873734,0.05393068492412567,0.10099241882562637,-0.3753673732280731,-0.15589787065982819,0.20800720155239105,0.06416556239128113,-0.13395191729068756
DB08893,0.1643979549407959,0.2983207106590271,-0.47746142745018005,-0.07196522504091263,-0.02796793356537819,0.23558185994625092,0.004709549713879824,-0.011113655753433704,-0.23851437866687775,0.04793841391801834,0.08822886645793915,0.22143666446208954,0.23715870082378387,-0.0801616758108139,0.16606254875659943,-0.09594640880823135,-0.23843738436698914,0.10521513968706131,-0.1634807586669922,-0.06384751945734024,0.044647905975580215,0.355727881193161,-0.011312304064631462,0.10741166025400162,0.05260047689080238,-0.14505694806575775,-0.04393652081489563,-0.29803380370140076,-0.030754810199141502,-0.046499159187078476,0.0753478929400444,0.13339422643184662,0.04697837680578232,-0.14369408786296844,0.09125829488039017,-0.2674035131931305,0.051780782639980316,-0.26765650510787964,-0.19340728223323822,0.17193147540092468,-0.23897004127502441,-0.0033032179344445467,-0.1357419639825821,-0.1549205780029297,-0.26963549852371216,-0.1595381498336792,0.1526256948709488,0.02051648125052452,-0.25701186060905457,-0.1512889415025711,-0.21639384329319,0.30372166633605957,-0.24223850667476654,-0.020647238940000534,-0.2068033665418625,0.3167946934700012,0.2633342444896698,-0.21114325523376465,0.036348167806863785,-0.1126323863863945,0.04248697683215141,0.04581032320857048,0.05076213553547859,0.2308354675769806,-0.07515798509120941,-0.10025166720151901,0.30214110016822815,-0.1817941665649414,-0.2033061981201172,-0.009625143371522427,0.13246014714241028,0.10762127488851547,0.1768801510334015,-0.019460279494524002,-0.2121511846780777,-0.1253494918346405,-0.05164162069559097,0.17834898829460144,0.3105018138885498,-0.15962019562721252,0.018244517967104912,0.06251306086778641,-0.10522644221782684,-0.09359470754861832,0.07045848667621613,0.04294417425990105,0.028125477954745293,-0.16882993280887604,-0.3650408387184143,-0.179237499833107,-0.0066867852583527565,-0.11303478479385376,0.07237868756055832,0.05657263845205307,0.09162189811468124,-0.3647259771823883,-0.14216996729373932,0.1983647644519806,0.065060093998909,-0.13658764958381653
DB01151,0.1724465787410736,0.31183022260665894,-0.48781052231788635,-0.0701783150434494,-0.030425667762756348,0.2591513693332672,-0.011787409894168377,-0.026111379265785217,-0.2549077868461609,0.061405979096889496,0.09073945134878159,0.22838830947875977,0.2550888657569885,-0.08249539136886597,0.1686193197965622,-0.09642012417316437,-0.24896037578582764,0.10531793534755707,-0.17378321290016174,-0.06445758044719696,0.05080411583185196,0.364725261926651,-0.010174183174967766,0.11581005156040192,0.054853182286024094,-0.14684687554836273,-0.036617983132600784,-0.3146067261695862,-0.03152352198958397,-0.039497010409832,0.08481904119253159,0.1307162344455719,0.04660015180706978,-0.1474219262599945,0.09160709381103516,-0.27345600724220276,0.06097119301557541,-0.27948784828186035,-0.1991366297006607,0.17323149740695953,-0.2524016499519348,-0.008051929995417595,-0.13158461451530457,-0.17609159648418427,-0.2753325402736664,-0.16187983751296997,0.15424509346485138,0.016813840717077255,-0.2681431770324707,-0.159136563539505,-0.22556328773498535,0.3090488612651825,-0.25617101788520813,-0.023341234773397446,-0.21908354759216309,0.33114093542099,0.27500206232070923,-0.22708407044410706,0.051546502858400345,-0.10655204206705093,0.041589345782995224,0.03423451632261276,0.04659292846918106,0.23719529807567596,-0.07902853935956955,-0.10010997205972672,0.29239559173583984,-0.18149320781230927,-0.213700532913208,-0.0016296623507514596,0.13216844201087952,0.11259348690509796,0.18514245748519897,-0.023304665461182594,-0.21161672472953796,-0.13246436417102814,-0.05770505219697952,0.18105889856815338,0.3257565498352051,-0.16514377295970917,0.018112787976861,0.05786599591374397,-0.10629187524318695,-0.10507810115814209,0.07456652075052261,0.04976402968168259,0.028453510254621506,-0.16948828101158142,-0.37083762884140015,-0.18376877903938293,-0.0002204125776188448,-0.12451280653476715,0.05931933969259262,0.054329000413417816,0.09980791062116623,-0.38026756048202515,-0.14891257882118225,0.20594754815101624,0.06302909553050995,-0.13406281173229218
DB08883,0.1556653380393982,0.30124014616012573,-0.48909106850624084,-0.12034041434526443,-0.020483987405896187,0.23028936982154846,0.025924572721123695,0.0800330713391304,-0.2726859152317047,-0.003499202663078904,0.11770181357860565,0.19128979742527008,0.22887039184570312,-0.11432839930057526,0.1517711579799652,-0.1398000568151474,-0.20750032365322113,0.07881246507167816,-0.16701562702655792,-0.06639216095209122,0.03054424375295639,0.38599488139152527,0.02109214849770069,0.14173009991645813,-0.014188684523105621,-0.22506040334701538,-0.014587553218007088,-0.3240683376789093,-0.032188501209020615,-0.11682841181755066,0.056924041360616684,0.16902567446231842,0.010347921401262283,-0.19952723383903503,0.11832339316606522,-0.29271215200424194,0.05473653972148895,-0.32888263463974,-0.21702057123184204,0.1784837394952774,-0.2302672415971756,0.045446522533893585,-0.11492868512868881,-0.13759414851665497,-0.2602062225341797,-0.14566275477409363,0.1624382585287094,0.005910790525376797,-0.3052098751068115,-0.2089235484600067,-0.215731680393219,0.2896062433719635,-0.18404121696949005,-0.06672674417495728,-0.18604408204555511,0.31596678495407104,0.2790009081363678,-0.2540665566921234,0.02878677099943161,-0.15270139276981354,0.03333010897040367,0.08706381916999817,0.003211973002180457,0.24870292842388153,-0.09242448955774307,-0.09107063710689545,0.3349268436431885,-0.19647563993930817,-0.18941658735275269,-0.05258620157837868,0.1887068748474121,0.13666564226150513,0.12280022352933884,-0.003015855560079217,-0.17843112349510193,-0.09195737540721893,-0.10369396954774857,0.19457651674747467,0.28003162145614624,-0.15105187892913818,0.010556090623140335,0.12794142961502075,-0.11817639321088791,-0.03991817682981491,0.0923137217760086,0.012594957835972309,-0.015655014663934708,-0.24039487540721893,-0.44759657979011536,-0.1871509850025177,0.009206311777234077,-0.11231490969657898,0.0833684504032135,0.059053611010313034,0.08034288138151169,-0.39978528022766113,-0.12040359526872635,0.18917207419872284,0.04613964632153511,-0.13175998628139496
DB01235,0.16092491149902344,0.28723403811454773,-0.44328927993774414,-0.057137396186590195,-0.025587571784853935,0.2296471893787384,-0.011900029145181179,-0.02351478673517704,-0.2213374525308609,0.0698777511715889,0.07232186943292618,0.21249449253082275,0.22997644543647766,-0.05547415092587471,0.14917366206645966,-0.10461065918207169,-0.22179971635341644,0.11213266104459763,-0.15445300936698914,-0.046458933502435684,0.03543182462453842,0.32029056549072266,-0.01690663769841194,0.09843277931213379,0.07058805972337723,-0.10193821042776108,-0.06788312643766403,-0.2713445723056793,-0.017272787168622017,-0.022177984938025475,0.07605600357055664,0.11071604490280151,0.047902341932058334,-0.11706464737653732,0.07418685406446457,-0.24864424765110016,0.04773324355483055,-0.22034688293933868,-0.17790426313877106,0.14840444922447205,-0.23442845046520233,-0.020054059103131294,-0.14028753340244293,-0.14392367005348206,-0.25702664256095886,-0.1472632735967636,0.15589287877082825,0.01671888493001461,-0.21373067796230316,-0.12428755313158035,-0.20499204099178314,0.2928716242313385,-0.24389877915382385,0.004141762387007475,-0.19012054800987244,0.30016013979911804,0.25428563356399536,-0.18923592567443848,0.02939901314675808,-0.09313742816448212,0.037094973027706146,0.036804087460041046,0.06824980676174164,0.21213844418525696,-0.05509304627776146,-0.09508317708969116,0.26482799649238586,-0.16018447279930115,-0.1923421174287796,0.024819185957312584,0.0994199737906456,0.08076225221157074,0.19528938829898834,-0.029750704765319824,-0.2040587216615677,-0.11942364275455475,-0.03031177446246147,0.16363337635993958,0.2996373772621155,-0.16182731091976166,0.020206371322274208,0.03029618225991726,-0.08981318771839142,-0.11168638616800308,0.04608822986483574,0.04371342808008194,0.03368246927857399,-0.12049687653779984,-0.31904929876327515,-0.17458394169807434,-0.0027493799570947886,-0.10439550876617432,0.07709173113107681,0.05847513675689697,0.08049636334180832,-0.34594276547431946,-0.14364030957221985,0.19255682826042175,0.0607043020427227,-0.1326475888490677
DB01275,0.1616465449333191,0.28675687313079834,-0.4916916787624359,-0.10881229490041733,-0.021553151309490204,0.19860780239105225,0.04623466357588768,0.08831494301557541,-0.2446223944425583,-0.024548852816224098,0.1121845617890358,0.1904938817024231,0.212580144405365,-0.14310936629772186,0.17356882989406586,-0.1207786500453949,-0.2165275365114212,0.0717402771115303,-0.1472533941268921,-0.08133210986852646,0.03343477100133896,0.38401392102241516,-0.001260317862033844,0.13731649518013,-0.02999546192586422,-0.22718621790409088,-0.013161170296370983,-0.3220725357532501,-0.03790672868490219,-0.12383667379617691,0.0486261285841465,0.1665784865617752,0.02262783795595169,-0.19503997266292572,0.1376621425151825,-0.30350470542907715,0.03486116603016853,-0.32900431752204895,-0.21331751346588135,0.1914798468351364,-0.21144209802150726,0.04992322251200676,-0.10490679740905762,-0.13436616957187653,-0.2611841857433319,-0.14983130991458893,0.15300823748111725,0.04563295468688011,-0.3093879520893097,-0.19135302305221558,-0.21708302199840546,0.27815088629722595,-0.18155820667743683,-0.07294978946447372,-0.19931267201900482,0.30566921830177307,0.25793877243995667,-0.24901394546031952,0.033285483717918396,-0.17498914897441864,0.05300234258174896,0.08585142344236374,0.008383558131754398,0.2285660058259964,-0.10757634788751602,-0.08660537004470825,0.3447742462158203,-0.1987903118133545,-0.18470798432826996,-0.06301962584257126,0.2098476141691208,0.14004239439964294,0.09806493669748306,-0.010715954005718231,-0.19973403215408325,-0.09519556909799576,-0.10534460097551346,0.19041414558887482,0.26176705956459045,-0.1268644481897354,0.01145078707486391,0.13857673108577728,-0.1318749338388443,-0.02357294224202633,0.09873232990503311,-0.005787541624158621,-0.0016841007163748145,-0.2533749043941498,-0.4217431843280792,-0.1552274227142334,-0.0005338660557754338,-0.10643940418958664,0.07723350077867508,0.05859324708580971,0.09305521100759506,-0.37877652049064636,-0.12797307968139648,0.19654209911823273,0.05421265587210655,-0.1320400983095169
DB00333,0.16530118882656097,0.29530009627342224,-0.4600869417190552,-0.06587284803390503,-0.03115706890821457,0.2528444230556488,-0.013749566860496998,-0.04490593820810318,-0.2269865721464157,0.06872826814651489,0.08670773357152939,0.22294196486473083,0.23528411984443665,-0.0657961294054985,0.15253214538097382,-0.10484754294157028,-0.25286152958869934,0.11489708721637726,-0.16827303171157837,-0.052829280495643616,0.03612736612558365,0.34766721725463867,-0.007088371552526951,0.10126204788684845,0.06518594920635223,-0.11915039271116257,-0.044444531202316284,-0.29120373725891113,-0.026204554364085197,-0.03371027857065201,0.07912527769804001,0.11951610445976257,0.050505805760622025,-0.1265677809715271,0.0881253033876419,-0.2515577971935272,0.05523069575428963,-0.24982546269893646,-0.18478891253471375,0.15411794185638428,-0.2475672960281372,-0.018636459484696388,-0.13115228712558746,-0.16893477737903595,-0.27569395303726196,-0.1578722596168518,0.15479491651058197,0.009259093552827835,-0.23754844069480896,-0.14598537981510162,-0.2127399444580078,0.3013834059238434,-0.24374915659427643,-0.009603142738342285,-0.21781599521636963,0.32780057191848755,0.2557288110256195,-0.2107120156288147,0.045989297330379486,-0.09912800043821335,0.033165864646434784,0.02482578530907631,0.0712604969739914,0.22751009464263916,-0.0831984281539917,-0.09644990414381027,0.2874893844127655,-0.18297997117042542,-0.2097446620464325,0.003722122171893716,0.10137509554624557,0.1007033959031105,0.19413556158542633,-0.012548035010695457,-0.20794571936130524,-0.13031329214572906,-0.04013428837060928,0.1729229986667633,0.312150239944458,-0.1698133498430252,0.03306945785880089,0.04684866964817047,-0.08781132847070694,-0.1081547960639,0.06086983531713486,0.048876356333494186,0.03965968266129494,-0.1428815722465515,-0.34600216150283813,-0.18079614639282227,-0.0024590897373855114,-0.11532653123140335,0.0750812217593193,0.04184656962752342,0.09282263368368149,-0.35558754205703735,-0.1488984376192093,0.20241163671016693,0.05810912325978279,-0.13884618878364563
DB00201,0.1500004082918167,0.27910682559013367,-0.4573170840740204,-0.10476891696453094,-0.02040998451411724,0.17822353541851044,0.05633779242634773,0.07719128578901291,-0.22628937661647797,-0.010859793983399868,0.07177680730819702,0.19192276895046234,0.18770229816436768,-0.1012323871254921,0.1482754498720169,-0.1256450116634369,-0.19976438581943512,0.08525171130895615,-0.13241925835609436,-0.07840685546398163,0.02276306413114071,0.34946033358573914,-0.01762118563055992,0.10581710189580917,-0.028664859011769295,-0.17833106219768524,-0.007443918846547604,-0.2732485234737396,-0.028079064562916756,-0.08767949789762497,0.05252320319414139,0.1557483822107315,0.059641189873218536,-0.17522703111171722,0.12374980747699738,-0.2801269292831421,0.01725933887064457,-0.26714953780174255,-0.17139093577861786,0.1748628467321396,-0.18386723101139069,0.049804601818323135,-0.12616032361984253,-0.09988496452569962,-0.2509205937385559,-0.13470205664634705,0.1484520137310028,0.034247152507305145,-0.24844244122505188,-0.15302719175815582,-0.1943960189819336,0.2791135609149933,-0.19499783217906952,-0.06875412166118622,-0.15621864795684814,0.29071611166000366,0.22939062118530273,-0.1869177669286728,0.0027236826717853546,-0.15863166749477386,0.05384835973381996,0.07730179280042648,0.03440500423312187,0.21238459646701813,-0.07221126556396484,-0.10302478820085526,0.3226979672908783,-0.17760126292705536,-0.16869303584098816,-0.04854840412735939,0.1940435916185379,0.11247115582227707,0.1283719837665558,-0.016552520915865898,-0.19241459667682648,-0.11951090395450592,-0.07140807062387466,0.18423335254192352,0.25362470746040344,-0.12383460998535156,-0.0030499324202537537,0.09066431224346161,-0.1103815883398056,-0.00782938115298748,0.07602868229150772,0.006335652433335781,-0.0016208200249820948,-0.21092280745506287,-0.40189605951309204,-0.16360048949718475,-0.008981888182461262,-0.08603890985250473,0.08218880742788315,0.052767444401979446,0.074997678399086,-0.3513750433921814,-0.1390838772058487,0.1853351891040802,0.06551700085401535,-0.12842608988285065
DB01609,0.16104450821876526,0.3012276291847229,-0.48943111300468445,-0.1039184108376503,-0.014991623349487782,0.22632643580436707,0.008864485658705235,0.06307876855134964,-0.2675204575061798,0.011969675309956074,0.11100991070270538,0.19296219944953918,0.23036076128482819,-0.1151508018374443,0.15016582608222961,-0.12859059870243073,-0.19916044175624847,0.08172518759965897,-0.16396619379520416,-0.06105050817131996,0.04283275455236435,0.3787669241428375,0.01606731116771698,0.14138628542423248,0.002273665741086006,-0.20473256707191467,-0.023699844256043434,-0.32323339581489563,-0.02843957208096981,-0.10220997780561447,0.06280039250850677,0.16133034229278564,0.022770699113607407,-0.17887867987155914,0.11391081660985947,-0.2860315442085266,0.04325316473841667,-0.3185104429721832,-0.21376760303974152,0.1711219847202301,-0.23604340851306915,0.030765721574425697,-0.11855734884738922,-0.14498935639858246,-0.26404115557670593,-0.1524636447429657,0.16755692660808563,0.014088509604334831,-0.3024897873401642,-0.1886092573404312,-0.21483328938484192,0.2939428389072418,-0.20155227184295654,-0.04992987588047981,-0.19030670821666718,0.31447502970695496,0.27546125650405884,-0.2496933490037918,0.033420395106077194,-0.1423974484205246,0.029955590143799782,0.0725371241569519,0.01500809658318758,0.23372796177864075,-0.08449411392211914,-0.09315802901983261,0.3227851092815399,-0.1941487044095993,-0.19592329859733582,-0.039380017668008804,0.17420442402362823,0.1248529702425003,0.13781693577766418,-0.013152963481843472,-0.18210116028785706,-0.10434062033891678,-0.09072840958833694,0.19154027104377747,0.28490501642227173,-0.15292370319366455,0.007143076509237289,0.10379225760698318,-0.11511562019586563,-0.05183049291372299,0.07590652257204056,0.013752791099250317,-0.005631635431200266,-0.21552105247974396,-0.4252184331417084,-0.18571603298187256,0.011466813273727894,-0.10943824797868729,0.0829092338681221,0.05708547681570053,0.07854090631008148,-0.4003467559814453,-0.1318393498659134,0.19286967813968658,0.048840347677469254,-0.13265341520309448
DB00712,0.1591661423444748,0.2947694659233093,-0.4658512473106384,-0.0891125500202179,-0.024675816297531128,0.2371656596660614,-0.013006076216697693,0.018080316483974457,-0.24706178903579712,0.03656621649861336,0.09869370609521866,0.19932885468006134,0.23281076550483704,-0.08541668951511383,0.14675801992416382,-0.12761527299880981,-0.21805916726589203,0.09174638986587524,-0.16424812376499176,-0.053942106664180756,0.032984472811222076,0.35513341426849365,0.00606955261901021,0.1225634515285492,0.03002246469259262,-0.1600971817970276,-0.043829575181007385,-0.3027653694152832,-0.024356327950954437,-0.0729583129286766,0.07272864133119583,0.14386332035064697,0.021064838394522667,-0.15926870703697205,0.09591618180274963,-0.26370540261268616,0.05484883487224579,-0.2759943902492523,-0.20328325033187866,0.16642802953720093,-0.2349817156791687,0.006183010526001453,-0.12433966994285583,-0.14669467508792877,-0.25744202733039856,-0.1495424211025238,0.16215963661670685,0.008972091600298882,-0.26480257511138916,-0.1747378408908844,-0.21060378849506378,0.2927546501159668,-0.21353325247764587,-0.026905188336968422,-0.19609704613685608,0.31326156854629517,0.272784560918808,-0.23084399104118347,0.02814941294491291,-0.1226351261138916,0.02540544979274273,0.05837637931108475,0.03628396615386009,0.2338586151599884,-0.0722304955124855,-0.08905559033155441,0.30216798186302185,-0.1831868439912796,-0.19144725799560547,-0.01307400781661272,0.13754183053970337,0.1129307746887207,0.157490536570549,-0.014465891756117344,-0.18660077452659607,-0.10177042335271835,-0.06668040156364441,0.18222913146018982,0.2912716567516327,-0.16263741254806519,0.015672985464334488,0.08231023699045181,-0.09990337491035461,-0.08302396535873413,0.07129374891519547,0.028669821098446846,0.008504093624651432,-0.18371480703353882,-0.38579005002975464,-0.18523913621902466,0.007492115255445242,-0.11170216649770737,0.08721937239170074,0.052207402884960175,0.08134233951568604,-0.3759802579879761,-0.13136348128318787,0.19686216115951538,0.04916232451796532,-0.13399755954742432
DB01418,0.16120903193950653,0.2975466251373291,-0.47046566009521484,-0.09136269986629486,-0.02333761379122734,0.21706540882587433,0.0044253054074943066,0.036490440368652344,-0.23538026213645935,0.022166116163134575,0.10055220872163773,0.2054252326488495,0.2295004427433014,-0.09124831855297089,0.15755993127822876,-0.1319650113582611,-0.22354918718338013,0.098167285323143,-0.1571063995361328,-0.06337807327508926,0.02206799015402794,0.3546901047229767,-0.007738590240478516,0.11789491772651672,0.026197345927357674,-0.16200774908065796,-0.044515568763017654,-0.2984004318714142,-0.028609342873096466,-0.06716356426477432,0.06127488613128662,0.14165817201137543,0.033022668212652206,-0.16946162283420563,0.09783647954463959,-0.2749810516834259,0.05762830749154091,-0.2646031677722931,-0.20141299068927765,0.18249958753585815,-0.22646664083003998,0.00785946287214756,-0.12981101870536804,-0.12914620339870453,-0.2631538510322571,-0.15528210997581482,0.16612036526203156,0.018216809257864952,-0.2560155689716339,-0.17536267638206482,-0.20934128761291504,0.2957724332809448,-0.21857860684394836,-0.03571479022502899,-0.18589088320732117,0.3105470836162567,0.27260613441467285,-0.2187781035900116,0.02014089561998844,-0.1420922875404358,0.028734924271702766,0.065617635846138,0.04971564561128616,0.23418709635734558,-0.08315014094114304,-0.1001768633723259,0.31035006046295166,-0.18999195098876953,-0.18406537175178528,-0.014389918185770512,0.14981280267238617,0.10377759486436844,0.1590348780155182,-0.03075469471514225,-0.20425564050674438,-0.10209838300943375,-0.06330601871013641,0.18552400171756744,0.28679537773132324,-0.15508264303207397,0.01762414537370205,0.08442844450473785,-0.09968165308237076,-0.07082194834947586,0.0837974101305008,0.029641728848218918,0.01805061846971512,-0.18663747608661652,-0.38844460248947144,-0.1892121583223343,0.0021778931841254234,-0.09972916543483734,0.09834170341491699,0.05080224573612213,0.07974176108837128,-0.37644147872924805,-0.1377556174993515,0.19624115526676178,0.056975219398736954,-0.14371098577976227
DB01576,0.16031524538993835,0.28254958987236023,-0.4598638415336609,-0.07669392973184586,-0.030519768595695496,0.24955935776233673,-0.0019657432567328215,-0.014700958505272865,-0.23415975272655487,0.05300367996096611,0.0807514414191246,0.20904627442359924,0.22664585709571838,-0.07014249265193939,0.15865854918956757,-0.1066698282957077,-0.23616895079612732,0.09146121889352798,-0.1619417816400528,-0.056841302663087845,0.030899694189429283,0.345144659280777,0.0038830898702144623,0.10382658243179321,0.04234796017408371,-0.13584330677986145,-0.038178134709596634,-0.2898305356502533,-0.027085941284894943,-0.056984078139066696,0.07677193731069565,0.13163703680038452,0.026225779205560684,-0.13535860180854797,0.09429614245891571,-0.2519568204879761,0.05521281808614731,-0.25792360305786133,-0.1859694868326187,0.1548261195421219,-0.23161916434764862,-0.0016892172861844301,-0.1260172724723816,-0.15806461870670319,-0.2586413025856018,-0.15020355582237244,0.14375659823417664,0.013430178165435791,-0.2480296790599823,-0.1549365222454071,-0.20988412201404572,0.2849190831184387,-0.21975357830524445,-0.01742474175989628,-0.2123960554599762,0.31153368949890137,0.2554953694343567,-0.21972477436065674,0.037771739065647125,-0.10463370382785797,0.04645583778619766,0.04091216251254082,0.038728032261133194,0.2291032373905182,-0.07480931282043457,-0.08508693426847458,0.29456856846809387,-0.17240969836711884,-0.19540713727474213,-0.013697112910449505,0.12442202866077423,0.11066329479217529,0.1599155068397522,-0.0027746111154556274,-0.1903456300497055,-0.11414019763469696,-0.05511241406202316,0.1682928502559662,0.2930886745452881,-0.15593545138835907,0.02130766399204731,0.07141368091106415,-0.10009817034006119,-0.09360680729150772,0.06675958633422852,0.03889048472046852,0.012409530580043793,-0.16586147248744965,-0.35654646158218384,-0.16677704453468323,-0.005637446418404579,-0.12072129547595978,0.06418228894472122,0.055766958743333817,0.09517663717269897,-0.34885457158088684,-0.13215604424476624,0.1983584463596344,0.052240896970033646,-0.12673082947731018
DB04842,0.17708896100521088,0.31808143854141235,-0.484841525554657,-0.05401914566755295,-0.03456367179751396,0.2495979368686676,-0.01766832172870636,-0.06425104290246964,-0.2318592369556427,0.07490275055170059,0.0975223109126091,0.24321450293064117,0.2577913999557495,-0.07581163942813873,0.1672595888376236,-0.09620846062898636,-0.267324835062027,0.1323714256286621,-0.1771783083677292,-0.059031665325164795,0.05066667124629021,0.3650646209716797,-0.02773171104490757,0.1090967059135437,0.07388642430305481,-0.12183637917041779,-0.04183297976851463,-0.3093324899673462,-0.028467746451497078,-0.022800972685217857,0.08240625262260437,0.11913814395666122,0.06338324397802353,-0.12550655007362366,0.08888378739356995,-0.26886093616485596,0.05714603140950203,-0.27019208669662476,-0.19303296506404877,0.16611696779727936,-0.26511630415916443,-0.023351790383458138,-0.13819454610347748,-0.18447206914424896,-0.28920814394950867,-0.165793776512146,0.15890853106975555,0.01702159456908703,-0.25341659784317017,-0.14729459583759308,-0.23147517442703247,0.3209817111492157,-0.27558261156082153,-0.011564902029931545,-0.22630763053894043,0.3399159014225006,0.26598966121673584,-0.2072569578886032,0.05556579679250717,-0.09972406923770905,0.03331783786416054,0.017421657219529152,0.07712060958147049,0.22745700180530548,-0.08968499302864075,-0.10564069449901581,0.2889072895050049,-0.1936468482017517,-0.22308707237243652,0.011310982517898083,0.1010141596198082,0.09630986303091049,0.2128368765115738,-0.027847344055771828,-0.22780105471611023,-0.14352717995643616,-0.040839891880750656,0.17499922215938568,0.3438081443309784,-0.17773620784282684,0.04001661390066147,0.03403789550065994,-0.09077080339193344,-0.11387177556753159,0.06402206420898438,0.05438727140426636,0.056421589106321335,-0.14444462954998016,-0.3439106345176697,-0.1849648803472519,-0.006021914537996054,-0.1171441450715065,0.07227684557437897,0.04135388508439064,0.0988561138510704,-0.37154558300971985,-0.16653643548488617,0.209758460521698,0.06814675778150558,-0.1441459059715271
DB06212,0.16782361268997192,0.3077280521392822,-0.47288453578948975,-0.07158170640468597,-0.02492988482117653,0.2435552328824997,-0.015841543674468994,-0.022961057722568512,-0.24633075296878815,0.05676242709159851,0.09197593480348587,0.2226368486881256,0.2462848424911499,-0.07570251822471619,0.1562950164079666,-0.10650692880153656,-0.2341192364692688,0.11057008057832718,-0.16973534226417542,-0.05639372020959854,0.04689430445432663,0.3547487258911133,-0.01307353563606739,0.11543671041727066,0.05508258938789368,-0.13910765945911407,-0.04848621040582657,-0.3035646677017212,-0.025294650346040726,-0.037410251796245575,0.0814259797334671,0.13038380444049835,0.046498678624629974,-0.14698785543441772,0.08828379213809967,-0.2676510810852051,0.05529538169503212,-0.26687607169151306,-0.1955190747976303,0.17087340354919434,-0.2475840300321579,-0.01301649957895279,-0.13592422008514404,-0.15952877700328827,-0.27077192068099976,-0.16019253432750702,0.1617380827665329,0.015165582299232483,-0.25250497460365295,-0.1561679244041443,-0.21735922992229462,0.3077008128166199,-0.25235387682914734,-0.0175852719694376,-0.2062990516424179,0.3275304138660431,0.2721714973449707,-0.2156945765018463,0.04111618548631668,-0.11084897071123123,0.0298624150454998,0.04153331369161606,0.059354767203330994,0.22905537486076355,-0.07342781126499176,-0.1026977151632309,0.28996211290359497,-0.1788545399904251,-0.20641307532787323,0.006630684714764357,0.12327316403388977,0.10652855038642883,0.19147978723049164,-0.03135506063699722,-0.20692771673202515,-0.1261146515607834,-0.05194494128227234,0.18274132907390594,0.31516754627227783,-0.1694202870130539,0.016194840893149376,0.053600359708070755,-0.09960439056158066,-0.10305317491292953,0.06699346750974655,0.04575033485889435,0.03309451416134834,-0.16144075989723206,-0.3682076930999756,-0.1896056830883026,0.0010217827511951327,-0.11234890669584274,0.07777245342731476,0.048207465559244156,0.09026364237070084,-0.37798404693603516,-0.1490185558795929,0.20223914086818695,0.06547931581735611,-0.13910505175590515
DB01232,0.17781144380569458,0.304888516664505,-0.4691920876502991,-0.03493237867951393,-0.03462713956832886,0.24042734503746033,-0.013071245513856411,-0.11002302169799805,-0.20396310091018677,0.09593690186738968,0.07605928182601929,0.25408419966697693,0.24231301248073578,-0.04786870256066322,0.168784499168396,-0.08611620962619781,-0.27670490741729736,0.15167027711868286,-0.17601947486400604,-0.05856217071413994,0.046332743018865585,0.3440884053707123,-0.03961804881691933,0.08427921682596207,0.09641943871974945,-0.07668515294790268,-0.05547173693776131,-0.2807043492794037,-0.029203901067376137,0.011781128123402596,0.08264084905385971,0.09712006151676178,0.08224480599164963,-0.09144646674394608,0.0773138478398323,-0.2499213069677353,0.05145813152194023,-0.2232355773448944,-0.17059238255023956,0.15468618273735046,-0.25678205490112305,-0.03873074799776077,-0.14865481853485107,-0.1737271100282669,-0.29268211126327515,-0.17542843520641327,0.15661604702472687,0.01660044863820076,-0.21032443642616272,-0.11403265595436096,-0.21965692937374115,0.32619887590408325,-0.29937830567359924,0.00937526673078537,-0.2313803881406784,0.3351937234401703,0.25229310989379883,-0.17281118035316467,0.04560041055083275,-0.08571792393922806,0.03502156212925911,-0.0004386223736219108,0.11162585765123367,0.21309930086135864,-0.08195298910140991,-0.11157793551683426,0.2807537019252777,-0.18738847970962524,-0.2278013974428177,0.03273623436689377,0.06775128096342087,0.07240266352891922,0.23426799476146698,-0.035670164972543716,-0.23916980624198914,-0.16226111352443695,-0.010905548930168152,0.1648792028427124,0.34565794467926025,-0.17938214540481567,0.046518146991729736,-2.81195552815916e-05,-0.07423356920480728,-0.13148222863674164,0.04561920091509819,0.06056353822350502,0.071632981300354,-0.10524879395961761,-0.30873486399650574,-0.1846155822277069,-0.020080043002963066,-0.1062491163611412,0.08334473520517349,0.03165774047374725,0.09921703487634659,-0.3440620005130768,-0.17608818411827087,0.20847925543785095,0.07964231073856354,-0.14448022842407227
DB09291,0.16687025129795074,0.3240247666835785,-0.4700133800506592,-0.01902901567518711,-0.040450990200042725,0.24442557990550995,-0.03721172362565994,-0.12271829694509506,-0.2157965451478958,0.10405375063419342,0.09209395200014114,0.2517559826374054,0.2637486457824707,-0.054375723004341125,0.16018611192703247,-0.0906478762626648,-0.2679671347141266,0.15066787600517273,-0.1760011464357376,-0.04372647404670715,0.06307585537433624,0.3488776683807373,-0.03482305631041527,0.10120537877082825,0.10262951254844666,-0.07519317418336868,-0.05468310788273811,-0.2992474436759949,-0.016662875190377235,0.00015407672617584467,0.09120267629623413,0.09631162136793137,0.06824248284101486,-0.08539630472660065,0.07679416239261627,-0.25646886229515076,0.053088314831256866,-0.23657456040382385,-0.17867636680603027,0.1459319293498993,-0.2793199121952057,-0.03494634851813316,-0.1458856761455536,-0.19801127910614014,-0.29195308685302734,-0.1635657250881195,0.1593131572008133,0.01924004778265953,-0.22356383502483368,-0.11525128036737442,-0.22743859887123108,0.3316740095615387,-0.30186691880226135,0.021538948640227318,-0.22710928320884705,0.33591243624687195,0.24932608008384705,-0.18377280235290527,0.06274916976690292,-0.05962570756673813,0.014445633627474308,-0.013196050189435482,0.10590068995952606,0.21345175802707672,-0.0716039389371872,-0.10526454448699951,0.25851529836654663,-0.1808667629957199,-0.2409919798374176,0.038685571402311325,0.05295272544026375,0.07395214587450027,0.24593836069107056,-0.028152616694569588,-0.22533634305000305,-0.15556567907333374,-0.006637037266045809,0.16479802131652832,0.3638918995857239,-0.18595890700817108,0.05631401762366295,-0.015610892325639725,-0.07337438315153122,-0.14661453664302826,0.026934446766972542,0.06124477460980415,0.07769139856100082,-0.0905952900648117,-0.2948372960090637,-0.18434850871562958,-0.009733329527080059,-0.11336567252874374,0.07639721781015396,0.04302690178155899,0.08970338851213455,-0.3532007038593292,-0.1802041232585907,0.20213890075683594,0.06586336344480515,-0.14439944922924042
DB00382,0.17031456530094147,0.30893176794052124,-0.5020191073417664,-0.08241824805736542,-0.026329679414629936,0.2253524661064148,-0.009677133522927761,0.012793699279427528,-0.25879088044166565,0.025027822703123093,0.10043751448392868,0.21288380026817322,0.24501827359199524,-0.1160949170589447,0.17015250027179718,-0.11706510186195374,-0.23650525510311127,0.08348312228918076,-0.1691776067018509,-0.0730755478143692,0.048062268644571304,0.38599979877471924,0.001104686176404357,0.1323292851448059,0.011563380248844624,-0.17584450542926788,-0.016742253676056862,-0.32823050022125244,-0.03933543711900711,-0.07877659797668457,0.07087597250938416,0.15258224308490753,0.035919930785894394,-0.16344313323497772,0.12053921073675156,-0.292872816324234,0.0585995651781559,-0.3118618130683899,-0.2140519618988037,0.18407143652439117,-0.24160006642341614,0.025817546993494034,-0.11561884731054306,-0.1672983169555664,-0.27604028582572937,-0.1685403436422348,0.16715577244758606,0.038973432034254074,-0.2985709011554718,-0.18170933425426483,-0.22231727838516235,0.3141948878765106,-0.2339087873697281,-0.048431992530822754,-0.221036896109581,0.3254924416542053,0.2814728915691376,-0.2502298653125763,0.03607873618602753,-0.13971857726573944,0.028537144884467125,0.04194866865873337,0.024122122675180435,0.23553533852100372,-0.09550131112337112,-0.09508106112480164,0.3227783739566803,-0.20495671033859253,-0.21234385669231415,-0.03102772682905197,0.16520513594150543,0.12054978311061859,0.14250631630420685,-0.02099538967013359,-0.19332152605056763,-0.12682217359542847,-0.0796903669834137,0.19065412878990173,0.30908969044685364,-0.15327249467372894,0.020930571481585503,0.08028394728899002,-0.11910023540258408,-0.06875362992286682,0.08654667437076569,0.018385954201221466,0.004417642951011658,-0.20589770376682281,-0.40792834758758545,-0.18364225327968597,0.0026583399157971144,-0.12183323502540588,0.08401355892419815,0.04608377441763878,0.09464046359062195,-0.3916374742984772,-0.14813777804374695,0.21172241866588593,0.05368933826684952,-0.13268445432186127
DB06153,0.17892053723335266,0.3201526403427124,-0.498826801776886,-0.046413905918598175,-0.029280612245202065,0.25448212027549744,-0.02043299935758114,-0.06280556321144104,-0.25305622816085815,0.06833437830209732,0.08964463323354721,0.23736537992954254,0.254505455493927,-0.06547033786773682,0.1743965595960617,-0.09560075402259827,-0.2595089375972748,0.12331441789865494,-0.18302476406097412,-0.06331421434879303,0.05400916934013367,0.37138375639915466,-0.014657941646873951,0.10684116929769516,0.07702556997537613,-0.12437628209590912,-0.044298529624938965,-0.30705875158309937,-0.03825673088431358,-0.016236450523138046,0.08426741510629654,0.1301753669977188,0.05900457873940468,-0.1292206346988678,0.08823749423027039,-0.26648828387260437,0.06617838144302368,-0.2656039595603943,-0.19761988520622253,0.17967088520526886,-0.26057323813438416,-0.016363611444830894,-0.14911635220050812,-0.1707320511341095,-0.2849009037017822,-0.17822319269180298,0.17066261172294617,0.014932138845324516,-0.2554742395877838,-0.15282627940177917,-0.22479966282844543,0.33626896142959595,-0.28662559390068054,-0.010113813914358616,-0.22750727832317352,0.3360234200954437,0.28140953183174133,-0.213039368391037,0.043571699410676956,-0.09777595847845078,0.02823856845498085,0.020208127796649933,0.0791776031255722,0.2391500473022461,-0.07319163531064987,-0.10920539498329163,0.30735260248184204,-0.19564488530158997,-0.22971366345882416,0.00872419960796833,0.11033296585083008,0.10593880712985992,0.2043982446193695,-0.03436289727687836,-0.22087222337722778,-0.1530410796403885,-0.0411432608962059,0.18536965548992157,0.3479035794734955,-0.17529194056987762,0.02443733438849449,0.035058457404375076,-0.09838241338729858,-0.11841496080160141,0.07235097885131836,0.06858275085687637,0.040843479335308075,-0.15007780492305756,-0.36724963784217834,-0.20245331525802612,-0.0050712157972157,-0.11476464569568634,0.08996176719665527,0.032142966985702515,0.10344798117876053,-0.38416725397109985,-0.16046491265296936,0.20605699717998505,0.06998671591281891,-0.14620982110500336
DB01017,0.18027754127979279,0.31440210342407227,-0.44895413517951965,-0.009905865415930748,-0.028396058827638626,0.24380755424499512,-0.019811784848570824,-0.13595153391361237,-0.20228055119514465,0.11521255224943161,0.06317362189292908,0.2570801377296448,0.24606092274188995,-0.01818167418241501,0.15651413798332214,-0.08531007915735245,-0.2720050513744354,0.1721060574054718,-0.1775045096874237,-0.04916418716311455,0.04785744473338127,0.32420215010643005,-0.05182531103491783,0.07179303467273712,0.1317909210920334,-0.03942549601197243,-0.08867146074771881,-0.2607828378677368,-0.028440892696380615,0.05717845633625984,0.09079844504594803,0.07967624068260193,0.10001809895038605,-0.07284853607416153,0.055524129420518875,-0.23488536477088928,0.05103811249136925,-0.18206004798412323,-0.1652110069990158,0.15680572390556335,-0.25780734419822693,-0.06476358324289322,-0.16965854167938232,-0.15735211968421936,-0.28819119930267334,-0.17394405603408813,0.1700909435749054,0.006846579723060131,-0.17224106192588806,-0.09028010815382004,-0.2095046192407608,0.3382492959499359,-0.3245575726032257,0.035791534930467606,-0.22035256028175354,0.3336929976940155,0.2581772804260254,-0.14980961382389069,0.04125695675611496,-0.06489039212465286,0.023561645299196243,-0.004181395750492811,0.15469451248645782,0.2095571905374527,-0.053993310779333115,-0.12215792387723923,0.25825822353363037,-0.17440898716449738,-0.2326868623495102,0.07968784868717194,0.03410499542951584,0.06428494304418564,0.27271464467048645,-0.0625988245010376,-0.2514905333518982,-0.17119200527668,0.01427756529301405,0.1660647988319397,0.3571564853191376,-0.18908922374248505,0.04456253722310066,-0.036637891083955765,-0.05998707190155983,-0.16370326280593872,0.032148320227861404,0.08881698548793793,0.09688644856214523,-0.06543711572885513,-0.2804396152496338,-0.2066708505153656,-0.009006135165691376,-0.08667099475860596,0.10352960228919983,0.015039890073239803,0.09474572539329529,-0.34633952379226685,-0.1820693016052246,0.20124021172523499,0.08984432369470596,-0.1585080325603485
DB01142,0.17383325099945068,0.30716779828071594,-0.48373663425445557,-0.06415987759828568,-0.024763016030192375,0.2571091651916504,-0.013707808218896389,-0.02025841735303402,-0.25361740589141846,0.05716409534215927,0.09243747591972351,0.21936582028865814,0.24418483674526215,-0.06969459354877472,0.16723419725894928,-0.11039380729198456,-0.2376558631658554,0.10935866087675095,-0.174763485789299,-0.05916339531540871,0.041337572038173676,0.3583485186100006,-0.004933694377541542,0.11643793433904648,0.05985884368419647,-0.13970448076725006,-0.04983502998948097,-0.30334699153900146,-0.029985103756189346,-0.037136394530534744,0.07874231785535812,0.13153812289237976,0.040463585406541824,-0.14311498403549194,0.08898509293794632,-0.2652014493942261,0.06003778800368309,-0.2649634778499603,-0.19921286404132843,0.1753356009721756,-0.247444748878479,-0.00798114389181137,-0.14146021008491516,-0.1562509834766388,-0.27045321464538574,-0.16308410465717316,0.16733767092227936,0.008992981165647507,-0.25465595722198486,-0.16077610850334167,-0.21944783627986908,0.31133008003234863,-0.25603631138801575,-0.015712089836597443,-0.21107244491577148,0.3231225609779358,0.28007638454437256,-0.22395741939544678,0.039944685995578766,-0.1073775663971901,0.03476719930768013,0.04109104722738266,0.061268970370292664,0.23992833495140076,-0.06987158954143524,-0.10091973841190338,0.2988360822200775,-0.184456467628479,-0.2107904702425003,0.00648308452218771,0.12413031607866287,0.10896210372447968,0.18524490296840668,-0.02875102125108242,-0.21123184263706207,-0.1282830387353897,-0.05307667702436447,0.18193043768405914,0.3204496502876282,-0.1691817343235016,0.01883344165980816,0.057862669229507446,-0.10350450873374939,-0.10588112473487854,0.07138775289058685,0.054500989615917206,0.026368964463472366,-0.16314633190631866,-0.3717274069786072,-0.19191841781139374,0.004089330788701773,-0.11209595948457718,0.08129793405532837,0.045655157417058945,0.09723680466413498,-0.3818129003047943,-0.14606525003910065,0.19924190640449524,0.06245695427060127,-0.13876333832740784
DB00214,0.1659618467092514,0.292253315448761,-0.4445964992046356,-0.07092896103858948,-0.02059064619243145,0.22619454562664032,0.013285152614116669,-0.02411879040300846,-0.22362540662288666,0.06233195587992668,0.07859881967306137,0.2141876220703125,0.23215825855731964,-0.05519958958029747,0.16333810985088348,-0.09200415760278702,-0.22650901973247528,0.12492404133081436,-0.16626256704330444,-0.053054701536893845,0.03340195491909981,0.32771560549736023,-0.026474570855498314,0.09472272545099258,0.058083876967430115,-0.12437845021486282,-0.070125512778759,-0.2684391736984253,-0.024290988221764565,-0.029837267473340034,0.07259412854909897,0.12069179862737656,0.053389985114336014,-0.13489578664302826,0.07902412116527557,-0.24596625566482544,0.03507358208298683,-0.22553248703479767,-0.17524272203445435,0.16587500274181366,-0.2209460288286209,-0.02898554690182209,-0.14616088569164276,-0.1260976940393448,-0.261348158121109,-0.154573455452919,0.15236152708530426,0.009222670458257198,-0.21462732553482056,-0.13114033639431,-0.20659714937210083,0.291666716337204,-0.2472088485956192,-0.008437760174274445,-0.18896383047103882,0.3074589967727661,0.2609350085258484,-0.183840811252594,0.03250712528824806,-0.10963811725378036,0.04400089383125305,0.056679800152778625,0.08856453746557236,0.2140728384256363,-0.06450381129980087,-0.10387086868286133,0.2942694127559662,-0.16431236267089844,-0.1913524866104126,0.02011748030781746,0.11593691259622574,0.0885506197810173,0.19338683784008026,-0.046039339154958725,-0.22416286170482635,-0.1200910434126854,-0.0369647815823555,0.17815648019313812,0.2896170914173126,-0.15655453503131866,0.01738663762807846,0.0496005117893219,-0.08940241485834122,-0.10606449097394943,0.06041081249713898,0.04678523167967796,0.04137274622917175,-0.16057540476322174,-0.34178707003593445,-0.1718137264251709,-0.017811251804232597,-0.09179910272359848,0.09216900914907455,0.04853809252381325,0.08820348978042603,-0.3538843095302582,-0.13662144541740417,0.19313551485538483,0.08311445266008377,-0.13842836022377014
DB01174,0.17177318036556244,0.2926878333091736,-0.4446772336959839,-0.053076211363077164,-0.025366652756929398,0.2391223907470703,0.0021057799458503723,-0.07793954759836197,-0.19662421941757202,0.08245733380317688,0.07918749749660492,0.2427441030740738,0.22502394020557404,-0.034913331270217896,0.15460896492004395,-0.09722607582807541,-0.25965380668640137,0.15634813904762268,-0.1707887053489685,-0.05189850553870201,0.03299965336918831,0.32565605640411377,-0.04215935245156288,0.07968132942914963,0.09966851025819778,-0.0861993134021759,-0.07785655558109283,-0.2623066306114197,-0.018589874729514122,0.010269302874803543,0.0745527446269989,0.09820099174976349,0.07605760544538498,-0.11256208270788193,0.06785403937101364,-0.23883092403411865,0.04737120121717453,-0.20076166093349457,-0.16618885099887848,0.15944302082061768,-0.24867458641529083,-0.04597029089927673,-0.15637320280075073,-0.1370546817779541,-0.2782842218875885,-0.1695731282234192,0.1542489379644394,-0.00037399656139314175,-0.18525375425815582,-0.12047436833381653,-0.2090061753988266,0.31175708770751953,-0.2754933536052704,0.008474125526845455,-0.20842698216438293,0.3292193114757538,0.24611514806747437,-0.1631804257631302,0.030849793925881386,-0.10082053393125534,0.03472062200307846,0.03362994268536568,0.1253645122051239,0.21493194997310638,-0.0746268481016159,-0.11354565620422363,0.2841300964355469,-0.17498086392879486,-0.2058408111333847,0.03507272154092789,0.06727629899978638,0.07737067341804504,0.23683618009090424,-0.03863677382469177,-0.24024568498134613,-0.1416131556034088,-0.01364804245531559,0.17282454669475555,0.3183305263519287,-0.17782412469387054,0.030694134533405304,0.02218840830028057,-0.07185190171003342,-0.1239246055483818,0.04922107979655266,0.06269866228103638,0.08063357323408127,-0.11208253353834152,-0.31666049361228943,-0.1918654888868332,-0.017546849325299263,-0.09445606917142868,0.10544245690107346,0.03133639320731163,0.09040665626525879,-0.33774471282958984,-0.15894252061843872,0.1976344734430313,0.08919792622327805,-0.1523425579071045
DB00104,0.17458336055278778,0.29710933566093445,-0.4585948884487152,-0.03411870077252388,-0.034277305006980896,0.23428930342197418,-0.009447067975997925,-0.10278957337141037,-0.20038029551506042,0.09489879757165909,0.07169129699468613,0.2492723912000656,0.24097616970539093,-0.03168907016515732,0.17124634981155396,-0.07821781188249588,-0.2643294930458069,0.15225908160209656,-0.1715191751718521,-0.051244210451841354,0.041404400020837784,0.3313892185688019,-0.044760655611753464,0.07746537774801254,0.10716607421636581,-0.06835061311721802,-0.07174009829759598,-0.267477810382843,-0.026907173916697502,0.014409385621547699,0.08008444309234619,0.09258636832237244,0.08152556419372559,-0.08943655341863632,0.06782354414463043,-0.24750357866287231,0.048327770084142685,-0.20263761281967163,-0.1681169718503952,0.15671172738075256,-0.249541237950325,-0.0455842986702919,-0.15534381568431854,-0.15829014778137207,-0.2826896011829376,-0.16801445186138153,0.15298767387866974,0.012723909690976143,-0.19321663677692413,-0.10789115726947784,-0.2164599895477295,0.3190576732158661,-0.2960662245750427,0.01642625778913498,-0.21957705914974213,0.3253771960735321,0.24794960021972656,-0.16174381971359253,0.037692394107580185,-0.08249440789222717,0.04005809873342514,0.013294265605509281,0.11886575073003769,0.21108892560005188,-0.06972091645002365,-0.11091963946819305,0.2756810784339905,-0.1782187819480896,-0.21625542640686035,0.04210323095321655,0.0669533833861351,0.06429911404848099,0.23422813415527344,-0.03770396113395691,-0.2442161738872528,-0.1542227417230606,-0.006839432287961245,0.16314589977264404,0.33809101581573486,-0.17757558822631836,0.04260820895433426,-0.000881709682289511,-0.07733471691608429,-0.13536375761032104,0.040901049971580505,0.06370531022548676,0.07480704039335251,-0.09835600852966309,-0.2943197786808014,-0.1820453703403473,-0.020123250782489777,-0.09969895333051682,0.08779250830411911,0.04170702025294304,0.09741820394992828,-0.33396658301353455,-0.166921004652977,0.2033047378063202,0.08453883975744247,-0.14322568476200104
DB00908,0.17884975671768188,0.31841886043548584,-0.4933215379714966,-0.04109455272555351,-0.03474732115864754,0.23927032947540283,-0.024119215086102486,-0.07577424496412277,-0.22436828911304474,0.07753174006938934,0.09274082630872726,0.24589316546916962,0.2554849684238434,-0.07625987380743027,0.1717543601989746,-0.09655958414077759,-0.27061960101127625,0.135597363114357,-0.17554564774036407,-0.06001931056380272,0.05081910267472267,0.36687079071998596,-0.029051676392555237,0.10719338059425354,0.08045018464326859,-0.10429815202951431,-0.04242812097072601,-0.3050868511199951,-0.03331015631556511,-0.013413600623607635,0.07766265422105789,0.10953321307897568,0.07913286983966827,-0.1062965989112854,0.09121593087911606,-0.2738126218318939,0.05496026203036308,-0.2603653371334076,-0.19392512738704681,0.16472922265529633,-0.2655591070652008,-0.019288325682282448,-0.13784512877464294,-0.18995074927806854,-0.2999405562877655,-0.17261166870594025,0.17138493061065674,0.0273795947432518,-0.2472371906042099,-0.1360522359609604,-0.22967368364334106,0.3344402611255646,-0.2884089946746826,-0.008300910703837872,-0.23002512753009796,0.3379230201244354,0.26558157801628113,-0.20381766557693481,0.05279344320297241,-0.09832374006509781,0.025448733940720558,0.0015740785747766495,0.08955273777246475,0.22407858073711395,-0.0936402976512909,-0.10994214564561844,0.2875487804412842,-0.20628972351551056,-0.23223792016506195,0.018794234842061996,0.09444770961999893,0.0810064822435379,0.2173876315355301,-0.031799327582120895,-0.23594440519809723,-0.1557793766260147,-0.029876748099923134,0.17145602405071259,0.35077139735221863,-0.17872308194637299,0.05247390270233154,0.013348273932933807,-0.0902935042977333,-0.11579039692878723,0.05679766833782196,0.04913710057735443,0.059283364564180374,-0.12571413815021515,-0.3336978256702423,-0.18849243223667145,-0.004009848460555077,-0.11139816045761108,0.08061469346284866,0.034135524183511734,0.0958661362528801,-0.3678675591945648,-0.1780298352241516,0.21332959830760956,0.06583774834871292,-0.14469008147716522
DB00569,0.1688302606344223,0.3019317090511322,-0.41496989130973816,-0.01063586212694645,-0.03418417274951935,0.19958089292049408,-0.034935761243104935,-0.14029020071029663,-0.17683345079421997,0.14324098825454712,0.06305345892906189,0.2582312226295471,0.264426589012146,0.021666742861270905,0.15790538489818573,-0.06194109842181206,-0.25553613901138306,0.19676323235034943,-0.16766023635864258,-0.020896056666970253,0.03206879273056984,0.2780097424983978,-0.07010030001401901,0.04698411002755165,0.18212519586086273,0.013755161315202713,-0.13272212445735931,-0.22130589187145233,-0.02412671037018299,0.06864803284406662,0.07136813551187515,0.046328671276569366,0.13244889676570892,-0.020934130996465683,0.02606496773660183,-0.22580018639564514,0.021511325612664223,-0.11962518841028214,-0.16556881368160248,0.13569465279579163,-0.24408119916915894,-0.10667383670806885,-0.18287430703639984,-0.14738699793815613,-0.2931838631629944,-0.1530858278274536,0.18461185693740845,0.005802146624773741,-0.13037893176078796,-0.04118022695183754,-0.20768693089485168,0.3287141025066376,-0.3417305648326874,0.07258151471614838,-0.18641191720962524,0.3047446608543396,0.2621774971485138,-0.10675007849931717,0.028276631608605385,-0.03681018576025963,0.012424706481397152,0.0034325357992202044,0.20499595999717712,0.18965566158294678,-0.05249421298503876,-0.13439668715000153,0.22813457250595093,-0.17165818810462952,-0.2168889045715332,0.12284878641366959,0.0016332946252077818,-0.003682896727696061,0.3174963593482971,-0.07132827490568161,-0.284733384847641,-0.1445576548576355,0.05976548045873642,0.1450340300798416,0.35832276940345764,-0.21465224027633667,0.0772189125418663,-0.10514179617166519,-0.042811352759599686,-0.18843171000480652,-0.005612455774098635,0.07372073084115982,0.12791888415813446,-0.011263200081884861,-0.20261016488075256,-0.18911372125148773,-0.0073683056980371475,-0.051794927567243576,0.12407603859901428,0.03964195400476456,0.06952273100614548,-0.32081976532936096,-0.17418459057807922,0.19949258863925934,0.10122571885585785,-0.15833142399787903
DB01222,0.18355323374271393,0.33343827724456787,-0.46792611479759216,0.012596016749739647,-0.040065180510282516,0.25069382786750793,-0.05267463997006416,-0.229334756731987,-0.18278583884239197,0.16807617247104645,0.06342101842164993,0.29504862427711487,0.27298060059547424,-0.00353952101431787,0.14817845821380615,-0.07376551628112793,-0.3227117657661438,0.20456860959529877,-0.19476278126239777,-0.04322781413793564,0.0579758919775486,0.3335024416446686,-0.059649743139743805,0.05348468944430351,0.18464858829975128,0.0239122174680233,-0.08389760553836823,-0.25860196352005005,-0.035823754966259,0.09730067849159241,0.10369694977998734,0.04904335364699364,0.1409464329481125,-0.011851070448756218,0.04533262178301811,-0.22511303424835205,0.06073041260242462,-0.168683260679245,-0.16609153151512146,0.1353713721036911,-0.29076600074768066,-0.08735734969377518,-0.17180569469928741,-0.2192472219467163,-0.3273616433143616,-0.18870745599269867,0.1794544905424118,0.008835087530314922,-0.16120558977127075,-0.06498710811138153,-0.21737617254257202,0.37593501806259155,-0.3729587197303772,0.06495681405067444,-0.2586069405078888,0.36117133498191833,0.25580814480781555,-0.13897866010665894,0.0591563880443573,-0.02644640952348709,-6.543964991578832e-05,-0.06503535807132721,0.19019605219364166,0.20803512632846832,-0.07600361108779907,-0.1359933614730835,0.23731280863285065,-0.2036951631307602,-0.27004483342170715,0.1053442507982254,-0.02351433038711548,0.031210407614707947,0.3306795656681061,-0.05158359184861183,-0.2750152051448822,-0.20769523084163666,0.061460498720407486,0.15138132870197296,0.41579383611679077,-0.22290834784507751,0.09034505486488342,-0.10998958349227905,-0.03460736945271492,-0.2009698748588562,0.007591970730572939,0.10093608498573303,0.12746433913707733,-0.0001169881725218147,-0.2329026758670807,-0.22195769846439362,-0.00888766534626484,-0.09363322705030441,0.09534409642219543,-0.006063720677047968,0.08987864851951599,-0.3318656384944916,-0.2152692973613739,0.21883270144462585,0.08772172033786774,-0.16398300230503082
DB09063,0.16993805766105652,0.30871665477752686,-0.46642735600471497,-0.054474759846925735,-0.02823023498058319,0.23588921129703522,-0.01059600431472063,-0.053503625094890594,-0.23780719935894012,0.08101557195186615,0.07558997720479965,0.22483107447624207,0.25280797481536865,-0.06782060861587524,0.16153912246227264,-0.08575998246669769,-0.23539485037326813,0.11978897452354431,-0.17258909344673157,-0.05342722684144974,0.05123438686132431,0.3421618938446045,-0.020479189231991768,0.10241945832967758,0.06804209202528,-0.1141902282834053,-0.05868948623538017,-0.28815633058547974,-0.029649341478943825,-0.02259831689298153,0.08898475021123886,0.11859268695116043,0.06475368142127991,-0.11979416757822037,0.08062712103128433,-0.25605618953704834,0.045130737125873566,-0.24543766677379608,-0.1865774244070053,0.16202493011951447,-0.23832805454730988,-0.02569301426410675,-0.1411362588405609,-0.16200722754001617,-0.27608242630958557,-0.1600530594587326,0.15796436369419098,0.019567370414733887,-0.23693139851093292,-0.12809714674949646,-0.21541115641593933,0.31243500113487244,-0.2677149772644043,-0.003029201179742813,-0.20957310497760773,0.3199783265590668,0.2677484452724457,-0.20208270847797394,0.04829505831003189,-0.09285401552915573,0.033648163080215454,0.024102214723825455,0.07460566610097885,0.21602697670459747,-0.062283966690301895,-0.10412638634443283,0.28175511956214905,-0.17517304420471191,-0.21486638486385345,0.025030769407749176,0.1112181767821312,0.08521575480699539,0.20317544043064117,-0.04165453463792801,-0.2200421541929245,-0.13914978504180908,-0.03239060565829277,0.1766452044248581,0.32087254524230957,-0.16465219855308533,0.026193471625447273,0.021687980741262436,-0.09352618455886841,-0.12235212326049805,0.05324239656329155,0.05178268253803253,0.03615324944257736,-0.14248032867908478,-0.3379841148853302,-0.17755533754825592,-0.009001411497592926,-0.10666480660438538,0.0759224146604538,0.04634806513786316,0.09047450125217438,-0.3644639849662781,-0.15407373011112213,0.20358014106750488,0.07081707566976547,-0.13598158955574036
DB00898,0.1378576010465622,0.20769022405147552,-0.3455675542354584,-0.03450479730963707,-0.03952975943684578,0.2483663409948349,-0.011313751339912415,-0.0771794319152832,-0.1490774005651474,0.12356233596801758,-0.02286694198846817,0.18785937130451202,0.17706887423992157,0.03875153139233589,0.12351412326097488,-0.05232517793774605,-0.20380525290966034,0.08421073108911514,-0.11647600680589676,-0.03847338631749153,0.0034770097117871046,0.20261907577514648,-0.00884160865098238,0.023646503686904907,0.11587312817573547,0.029132401570677757,-0.11190932244062424,-0.16373352706432343,-0.006065450608730316,0.04161171242594719,0.0957607701420784,0.06118403375148773,0.03487582504749298,-0.03126824274659157,0.023512667044997215,-0.17596180737018585,0.033898767083883286,-0.05393579229712486,-0.10875639319419861,0.09194961935281754,-0.16477470099925995,-0.04527616500854492,-0.14376495778560638,-0.11496767401695251,-0.19444258511066437,-0.10434643179178238,0.09757957607507706,0.0046690828166902065,-0.07700242102146149,-0.035925984382629395,-0.16008125245571136,0.24027584493160248,-0.207902729511261,0.059100836515426636,-0.17645764350891113,0.23362191021442413,0.18144993484020233,-0.11844557523727417,0.0035267274361103773,-0.019174475222826004,0.07456550747156143,0.00762051111087203,0.07972127944231033,0.19306431710720062,0.02030250057578087,-0.0661936104297638,0.18401874601840973,-0.0748559907078743,-0.13749487698078156,0.06548751145601273,0.04061141610145569,0.04058409482240677,0.19066362082958221,0.004711272660642862,-0.18325035274028778,-0.10552164912223816,0.036504294723272324,0.11069410294294357,0.2480921894311905,-0.1386031061410904,-0.00023095060896594077,-0.01995060034096241,-0.06151413545012474,-0.16867895424365997,-0.012339877896010876,0.05806531384587288,0.014668424613773823,-0.021217167377471924,-0.16529887914657593,-0.11956131458282471,-0.024194469675421715,-0.11588907241821289,0.02622309885919094,0.09164396673440933,0.07053692638874054,-0.20300130546092987,-0.12019401788711548,0.17842619121074677,0.0602526031434536,-0.09001895785331726
DB01589,0.1649029701948166,0.3107212781906128,-0.46419718861579895,-0.04673511162400246,-0.033547598868608475,0.23468555510044098,-0.012471540831029415,-0.05728224292397499,-0.23339024186134338,0.06873928755521774,0.08787693083286285,0.2217765599489212,0.2473081350326538,-0.06834583729505539,0.1568300575017929,-0.09952844679355621,-0.23611198365688324,0.12613695859909058,-0.17049573361873627,-0.05213819071650505,0.04550877586007118,0.34583091735839844,-0.02751701883971691,0.10862299054861069,0.0668141320347786,-0.1178511530160904,-0.06092561408877373,-0.2907920777797699,-0.019921239465475082,-0.027406657114624977,0.08612389862537384,0.12221739441156387,0.04531679302453995,-0.12846076488494873,0.08169277012348175,-0.25982075929641724,0.05241813510656357,-0.24633252620697021,-0.18762141466140747,0.17200714349746704,-0.24731770157814026,-0.021747441962361336,-0.1449941247701645,-0.15678910911083221,-0.26596230268478394,-0.15449844300746918,0.1601436287164688,0.01243903674185276,-0.2336203008890152,-0.13959988951683044,-0.2224489003419876,0.31136348843574524,-0.2629460096359253,-0.003060254966840148,-0.20480699837207794,0.3235996663570404,0.26502108573913574,-0.19555158913135529,0.042819514870643616,-0.09224315732717514,0.030168570578098297,0.03880351036787033,0.08032931387424469,0.22102075815200806,-0.05464017018675804,-0.10022150725126266,0.283606618642807,-0.1665615290403366,-0.2054954171180725,0.024392861872911453,0.10064087063074112,0.09732730686664581,0.20123183727264404,-0.0390734001994133,-0.2099265456199646,-0.12818989157676697,-0.03716709464788437,0.17994433641433716,0.32421794533729553,-0.16675661504268646,0.021175919100642204,0.03502547740936279,-0.09013277292251587,-0.11873648315668106,0.057182300835847855,0.060025252401828766,0.05112597346305847,-0.1468651443719864,-0.3373199701309204,-0.1789979189634323,-0.005210363771766424,-0.10381882637739182,0.08454156666994095,0.043389126658439636,0.09081998467445374,-0.36259254813194275,-0.15300635993480682,0.1981835961341858,0.06760308891534805,-0.1432076096534729
DB00762,0.17920786142349243,0.3204750418663025,-0.48687878251075745,-0.04083210602402687,-0.03181418031454086,0.23921725153923035,-0.026271995157003403,-0.08544333279132843,-0.2298603653907776,0.08616695553064346,0.0831451416015625,0.25085994601249695,0.25594091415405273,-0.058633722364902496,0.16600462794303894,-0.09198202937841415,-0.26151689887046814,0.14168262481689453,-0.1770612746477127,-0.05785708129405975,0.057433195412158966,0.3559214174747467,-0.0340539813041687,0.10078772902488708,0.08831878006458282,-0.09588711708784103,-0.047777947038412094,-0.3013139069080353,-0.028778603300452232,0.0030897457618266344,0.08247938007116318,0.10889396071434021,0.08534257113933563,-0.10656356811523438,0.08205583691596985,-0.2720998227596283,0.05232575908303261,-0.24556158483028412,-0.18526656925678253,0.16462557017803192,-0.2656792402267456,-0.025663675740361214,-0.14860452711582184,-0.1766989827156067,-0.29373082518577576,-0.17279662191867828,0.16997720301151276,0.02115982584655285,-0.23190198838710785,-0.126008078455925,-0.22532808780670166,0.3371600806713104,-0.3057887852191925,-0.0030809890013188124,-0.22082801163196564,0.33618777990341187,0.2654896080493927,-0.18985393643379211,0.044241853058338165,-0.09029679745435715,0.02453537844121456,0.003313496708869934,0.09481404721736908,0.2204713672399521,-0.07613052427768707,-0.11508142948150635,0.2804049849510193,-0.1936413049697876,-0.23173099756240845,0.02737942337989807,0.08859297633171082,0.0759069174528122,0.23282413184642792,-0.03917478024959564,-0.23207393288612366,-0.16044014692306519,-0.022141896188259125,0.17387336492538452,0.35428130626678467,-0.1823301613330841,0.0354255735874176,-0.0003393548831809312,-0.08665948361158371,-0.12308958917856216,0.04770628362894058,0.05544383451342583,0.061349425464868546,-0.11363852024078369,-0.3310668468475342,-0.1980685293674469,-0.005985107738524675,-0.10852742940187454,0.08556164801120758,0.03750716894865036,0.09292591363191605,-0.3690375089645386,-0.18052801489830017,0.21040910482406616,0.07433571666479111,-0.1440446823835373
DB09054,0.16401667892932892,0.30210983753204346,-0.501628041267395,-0.10261697322130203,-0.02236993797123432,0.20026841759681702,0.030556021258234978,0.0647691935300827,-0.250029057264328,-0.00641411729156971,0.10828318446874619,0.19996961951255798,0.22250176966190338,-0.13725009560585022,0.16685350239276886,-0.12622416019439697,-0.21807686984539032,0.08211031556129456,-0.15726061165332794,-0.07733387500047684,0.03942028060555458,0.39279359579086304,-0.0005399935762397945,0.13610360026359558,-0.02176785282790661,-0.2151498943567276,-0.006788881495594978,-0.32175299525260925,-0.03775150328874588,-0.11474602669477463,0.05796502158045769,0.16670410335063934,0.038983073085546494,-0.18295840919017792,0.13319970667362213,-0.2957973778247833,0.03484297916293144,-0.32822003960609436,-0.2132716327905655,0.18215730786323547,-0.22047080099582672,0.04621601477265358,-0.1101444661617279,-0.14521870017051697,-0.2757285535335541,-0.1580810248851776,0.1608530879020691,0.03667137771844864,-0.31040793657302856,-0.18795083463191986,-0.218001589179039,0.29842719435691833,-0.20068073272705078,-0.0677090585231781,-0.20042772591114044,0.31604400277137756,0.2632184326648712,-0.24565096199512482,0.03361685201525688,-0.16620127856731415,0.03738265857100487,0.06900253146886826,0.016922486945986748,0.22750231623649597,-0.10138008743524551,-0.09352730214595795,0.3443959355354309,-0.21046395599842072,-0.1980547159910202,-0.0556601919233799,0.19478753209114075,0.12503083050251007,0.11945643275976181,-0.013083058409392834,-0.19998422265052795,-0.11376969516277313,-0.09459438174962997,0.19208495318889618,0.28445613384246826,-0.138802170753479,0.018734749406576157,0.11011511087417603,-0.12038083374500275,-0.031136848032474518,0.08907946944236755,0.0004983621183782816,-0.0017959254328161478,-0.2367333173751831,-0.4292258620262146,-0.1697746068239212,-0.0015617911703884602,-0.10661482065916061,0.08618012815713882,0.046290840953588486,0.0858808383345604,-0.3870868682861328,-0.14230668544769287,0.19978243112564087,0.05524464324116707,-0.13403262197971344
DB00780,0.16224685311317444,0.2798471748828888,-0.45881304144859314,-0.08058114349842072,-0.02969343028962612,0.24826917052268982,0.01564945839345455,-0.0018032379448413849,-0.23247845470905304,0.04687422513961792,0.08244524896144867,0.2111629992723465,0.2238553762435913,-0.06574992090463638,0.16472890973091125,-0.09662078320980072,-0.23404058814048767,0.09415316581726074,-0.15805627405643463,-0.06321839988231659,0.02969455160200596,0.33945849537849426,-0.006855023093521595,0.10070882737636566,0.044337689876556396,-0.14404495060443878,-0.0423908568918705,-0.2882080376148224,-0.025158071890473366,-0.05168073624372482,0.07292990386486053,0.13090410828590393,0.027072345837950706,-0.14460870623588562,0.09100987017154694,-0.2615569233894348,0.053265877068042755,-0.2531667947769165,-0.18334880471229553,0.1651746928691864,-0.22820575535297394,-0.0015890386421233416,-0.1322084218263626,-0.14506034553050995,-0.2502771019935608,-0.14497338235378265,0.13720980286598206,0.013022397644817829,-0.24133607745170593,-0.15271103382110596,-0.21411065757274628,0.27718663215637207,-0.22197258472442627,-0.022288795560598373,-0.20372959971427917,0.30694806575775146,0.25047874450683594,-0.20954832434654236,0.03405015170574188,-0.10697052627801895,0.062106747180223465,0.05616876482963562,0.03828456997871399,0.23070213198661804,-0.07146255671977997,-0.08697924017906189,0.2927717864513397,-0.16256625950336456,-0.18501710891723633,-0.014379526488482952,0.136326402425766,0.11665032058954239,0.160477414727211,-0.0059518106281757355,-0.20082888007164001,-0.11060051620006561,-0.0568460151553154,0.16909265518188477,0.2881394028663635,-0.15196658670902252,0.008273584768176079,0.08252278715372086,-0.10671590268611908,-0.08735433965921402,0.0692906379699707,0.04197106510400772,0.018381688743829727,-0.17352673411369324,-0.3522874712944031,-0.1635293811559677,-0.006068583577871323,-0.11738575994968414,0.05476024001836777,0.06561735272407532,0.10023750364780426,-0.3465930223464966,-0.1280103325843811,0.194589301943779,0.060556940734386444,-0.125053271651268
DB01158,0.16184720396995544,0.284477174282074,-0.43603938817977905,-0.053638678044080734,-0.035392407327890396,0.25376638770103455,-0.01656441204249859,-0.053720638155937195,-0.22791120409965515,0.07175285369157791,0.0683349072933197,0.2137487530708313,0.23230251669883728,-0.06130828335881233,0.15229037404060364,-0.08943331986665726,-0.24666309356689453,0.10598726570606232,-0.15828315913677216,-0.050361812114715576,0.04631680250167847,0.3268810510635376,-0.014612188562750816,0.09885917603969574,0.06430144608020782,-0.10190583020448685,-0.0438375398516655,-0.2856844365596771,-0.02091936022043228,-0.020380297675728798,0.08161311596632004,0.11514042317867279,0.04604353383183479,-0.1256965547800064,0.09624432772397995,-0.2526044249534607,0.046665944159030914,-0.23785723745822906,-0.16733267903327942,0.15144862234592438,-0.23598513007164001,-0.01962096244096756,-0.13324931263923645,-0.16727368533611298,-0.26144471764564514,-0.141184464097023,0.1416933834552765,0.019912876188755035,-0.22315070033073425,-0.12403126806020737,-0.20994962751865387,0.2894490957260132,-0.2500038743019104,-0.008722568862140179,-0.2042095810174942,0.31318458914756775,0.24207594990730286,-0.19251595437526703,0.04586133733391762,-0.08313246071338654,0.04658275842666626,0.018002040684223175,0.06256894767284393,0.21766908466815948,-0.06740082055330276,-0.08865583688020706,0.26336413621902466,-0.1566472053527832,-0.19822262227535248,0.01091037504374981,0.09839869290590286,0.10506550967693329,0.19265730679035187,-0.018935199826955795,-0.19734083116054535,-0.12665387988090515,-0.03952350467443466,0.16572043299674988,0.3084864318370819,-0.1604406088590622,0.01805582270026207,0.03908657282590866,-0.0908067598938942,-0.11382414400577545,0.053659167140722275,0.049732841551303864,0.03896918520331383,-0.133170023560524,-0.3156466782093048,-0.16290488839149475,-0.00854691956192255,-0.11953873187303543,0.04846436157822609,0.06205121427774429,0.0984853208065033,-0.3434200584888458,-0.14923213422298431,0.19842880964279175,0.05956048145890236,-0.1285065859556198
DB00186,0.16564367711544037,0.307081937789917,-0.47394466400146484,-0.0723734050989151,-0.024744104593992233,0.23355084657669067,-0.0013713283697143197,-0.017063595354557037,-0.24719735980033875,0.04696912318468094,0.0947360172867775,0.21666434407234192,0.23981483280658722,-0.07770387828350067,0.15562088787555695,-0.11245699226856232,-0.22280175983905792,0.1144939735531807,-0.16724863648414612,-0.05719021335244179,0.039333242923021317,0.3518267273902893,-0.018942194059491158,0.11571675539016724,0.055291999131441116,-0.14394208788871765,-0.06173631548881531,-0.29851025342941284,-0.023594388738274574,-0.039570875465869904,0.08088400214910507,0.1368008404970169,0.04030795767903328,-0.1522650420665741,0.0860418751835823,-0.2681010663509369,0.05459887534379959,-0.2631186246871948,-0.2001156359910965,0.18017128109931946,-0.2391921430826187,-0.016401177272200584,-0.14258885383605957,-0.14404359459877014,-0.2641972303390503,-0.15775078535079956,0.16481497883796692,0.010663041844964027,-0.24731704592704773,-0.15715865790843964,-0.21852457523345947,0.3045641779899597,-0.24815009534358978,-0.014891364611685276,-0.20059989392757416,0.32626816630363464,0.2741909623146057,-0.209823876619339,0.0363730788230896,-0.11700703203678131,0.030315611511468887,0.0578450933098793,0.0631583109498024,0.22597888112068176,-0.0635228231549263,-0.1030810996890068,0.2965867519378662,-0.1752053201198578,-0.19844146072864532,0.01189956720918417,0.12839233875274658,0.1072954535484314,0.18593241274356842,-0.04159316420555115,-0.21195624768733978,-0.11453293263912201,-0.0538875088095665,0.18428684771060944,0.31031689047813416,-0.17016063630580902,0.009207303635776043,0.06182679533958435,-0.09930552542209625,-0.10058179497718811,0.07202885299921036,0.05343335494399071,0.037299465388059616,-0.16712352633476257,-0.36892569065093994,-0.18764665722846985,0.001055204658769071,-0.10038001090288162,0.08667998015880585,0.03997771069407463,0.0914321318268776,-0.3760569989681244,-0.14613603055477142,0.200893834233284,0.06874053180217743,-0.14490197598934174
DB09071,0.18100589513778687,0.31749284267425537,-0.48203590512275696,-0.034588880836963654,-0.03339565172791481,0.254624605178833,-0.03460143133997917,-0.10931429266929626,-0.22898997366428375,0.1101522371172905,0.07589714229106903,0.2542654573917389,0.262366384267807,-0.04502816125750542,0.16437235474586487,-0.0853608176112175,-0.2706383764743805,0.14263036847114563,-0.18415352702140808,-0.052825525403022766,0.05577485263347626,0.34888020157814026,-0.028235167264938354,0.09099716693162918,0.10801681131124496,-0.07790457457304001,-0.05551683157682419,-0.28961196541786194,-0.0290763508528471,0.01561814546585083,0.09308384358882904,0.09799163043498993,0.0830596461892128,-0.09074665606021881,0.07123483717441559,-0.2552141547203064,0.062386613339185715,-0.22947849333286285,-0.18257835507392883,0.1568663865327835,-0.2702506482601166,-0.03806488960981369,-0.15097635984420776,-0.18844516575336456,-0.293559730052948,-0.17714090645313263,0.16467006504535675,0.011888156644999981,-0.2224164754152298,-0.120599165558815,-0.22276324033737183,0.3384288549423218,-0.3095681667327881,0.013142656534910202,-0.23151829838752747,0.3376081585884094,0.2695958912372589,-0.19155442714691162,0.050257518887519836,-0.07415077090263367,0.025308512151241302,-0.006546609569340944,0.09761374443769455,0.22211921215057373,-0.07032234221696854,-0.11224416643381119,0.2702265977859497,-0.18868212401866913,-0.23527783155441284,0.03972868248820305,0.07162272185087204,0.07197828590869904,0.24230869114398956,-0.03529134392738342,-0.23153887689113617,-0.16576801240444183,-0.009680953808128834,0.17041054368019104,0.36149346828460693,-0.18720869719982147,0.038910046219825745,-0.012617005035281181,-0.08065775036811829,-0.14490868151187897,0.04225797578692436,0.06686311215162277,0.05895951762795448,-0.09852579981088638,-0.3182690739631653,-0.19785083830356598,-0.008625522255897522,-0.11567791551351547,0.07786843925714493,0.03707532212138176,0.09604852646589279,-0.36309927701950073,-0.17565687000751495,0.21069426834583282,0.07329943031072617,-0.14004983007907867
DB01248,0.17075566947460175,0.31523358821868896,-0.4565727412700653,-0.019561786204576492,-0.034701813012361526,0.24159279465675354,-0.03774706646800041,-0.14242997765541077,-0.19709399342536926,0.12074305862188339,0.07713571190834045,0.2630820870399475,0.25670310854911804,-0.028762387111783028,0.14559830725193024,-0.09058891981840134,-0.28551870584487915,0.17109113931655884,-0.17647947371006012,-0.04129845276474953,0.04994219169020653,0.3324485123157501,-0.042726676911115646,0.07484013587236404,0.13986098766326904,-0.032360728830099106,-0.07765539735555649,-0.272398978471756,-0.027633950114250183,0.04217641428112984,0.08685949444770813,0.0752260833978653,0.10547877103090286,-0.057408690452575684,0.05998685583472252,-0.2401333898305893,0.05057232826948166,-0.199821338057518,-0.17651712894439697,0.14088550209999084,-0.27247264981269836,-0.06321302056312561,-0.15736986696720123,-0.1925579458475113,-0.3049633800983429,-0.17033465206623077,0.1739642471075058,0.012207908555865288,-0.1890481859445572,-0.09035468101501465,-0.2155662626028061,0.3410727083683014,-0.31930071115493774,0.03965666517615318,-0.23094934225082397,0.34103432297706604,0.2554956376552582,-0.16095562279224396,0.04983237385749817,-0.056512102484703064,0.008030446246266365,-0.021837294101715088,0.14790411293506622,0.21096254885196686,-0.07762854546308517,-0.12100790441036224,0.24961329996585846,-0.19228917360305786,-0.24261704087257385,0.07045967876911163,0.02290104515850544,0.05429701507091522,0.2819083034992218,-0.03908669576048851,-0.2511001527309418,-0.16416355967521667,0.02166512981057167,0.15630151331424713,0.3701278567314148,-0.20523802936077118,0.06986189633607864,-0.05305609107017517,-0.0543014258146286,-0.1634521484375,0.021624382585287094,0.07219267636537552,0.10064984858036041,-0.04948490113019943,-0.26774805784225464,-0.20502515137195587,-0.001159784384071827,-0.0935332179069519,0.09521903842687607,0.02005298063158989,0.08316706120967865,-0.34095102548599243,-0.18789200484752655,0.20837166905403137,0.07611813396215439,-0.1584196388721466
DB00484,0.1726919412612915,0.30497220158576965,-0.49295616149902344,-0.0697212666273117,-0.025134630501270294,0.21380531787872314,0.027316279709339142,-0.005626698490232229,-0.23952089250087738,0.027220770716667175,0.09397847950458527,0.22070620954036713,0.22898606956005096,-0.09594381600618362,0.1796884983778,-0.10344646871089935,-0.2393718957901001,0.10833662003278732,-0.16357767581939697,-0.07524793595075607,0.04326772689819336,0.3693065345287323,-0.02851242572069168,0.11022130399942398,0.03371262550354004,-0.1635470986366272,-0.03497707098722458,-0.3015267848968506,-0.03609291464090347,-0.05246363952755928,0.0644824206829071,0.13811367750167847,0.05611256882548332,-0.15494120121002197,0.11730291694402695,-0.2863445281982422,0.041999105364084244,-0.2795068323612213,-0.19497807323932648,0.18836426734924316,-0.2294173538684845,0.011333541013300419,-0.13577187061309814,-0.14427699148654938,-0.2724180519580841,-0.16606885194778442,0.1558949500322342,0.029332337900996208,-0.2617919445037842,-0.15275567770004272,-0.21982504427433014,0.30952611565589905,-0.25349992513656616,-0.040712133049964905,-0.20794615149497986,0.3181406259536743,0.2591634690761566,-0.206141859292984,0.03593309968709946,-0.13560521602630615,0.0485883392393589,0.05599512159824371,0.059382230043411255,0.2195175737142563,-0.08503768593072891,-0.10006334632635117,0.3221634328365326,-0.19054022431373596,-0.20235422253608704,-0.012837160378694534,0.15245915949344635,0.11304330825805664,0.16416674852371216,-0.03683371841907501,-0.22517728805541992,-0.13252563774585724,-0.0652884840965271,0.18377985060214996,0.30895674228668213,-0.14730629324913025,0.01082003116607666,0.07579486072063446,-0.1118895560503006,-0.07427176833152771,0.0803363099694252,0.035686541348695755,0.03523201867938042,-0.19241607189178467,-0.3767441511154175,-0.17407110333442688,-0.012739000841975212,-0.10038807988166809,0.08724110573530197,0.04338543489575386,0.10165983438491821,-0.37002384662628174,-0.14859728515148163,0.2012990266084671,0.07670411467552185,-0.13882145285606384
DB00881,0.17209963500499725,0.2998397648334503,-0.4626277685165405,-0.04977801442146301,-0.03240744024515152,0.24528548121452332,-0.01619352586567402,-0.0810498595237732,-0.21510198712348938,0.08786626160144806,0.07749386131763458,0.24286611378192902,0.2391456961631775,-0.042296674102544785,0.16046161949634552,-0.0942639708518982,-0.2594772279262543,0.14298968017101288,-0.1703530102968216,-0.0522041842341423,0.039860278367996216,0.3352474272251129,-0.030939020216464996,0.08676760643720627,0.0958322063088417,-0.08683363348245621,-0.06377832591533661,-0.2756838798522949,-0.02452971413731575,0.0030319346114993095,0.08087226003408432,0.10075497627258301,0.07165342569351196,-0.10322902351617813,0.0715949609875679,-0.2471720427274704,0.0504707507789135,-0.2195032238960266,-0.17534437775611877,0.1561577022075653,-0.2512277066707611,-0.03691975772380829,-0.14929530024528503,-0.1611858606338501,-0.2796689569950104,-0.16433070600032806,0.15731531381607056,0.006116288248449564,-0.20843510329723358,-0.12000676244497299,-0.21549879014492035,0.31460949778556824,-0.2833927869796753,0.009292836301028728,-0.2150702029466629,0.32750403881073,0.2566604018211365,-0.17730140686035156,0.03746887668967247,-0.08717966079711914,0.03606433793902397,0.020588509738445282,0.10400275886058807,0.21883553266525269,-0.07132161408662796,-0.11081234365701675,0.2760443389415741,-0.17654860019683838,-0.21306212246418,0.031933147460222244,0.07658013701438904,0.07569888234138489,0.22873455286026,-0.02961512841284275,-0.23099088668823242,-0.14478088915348053,-0.01636386662721634,0.16690589487552643,0.3335820138454437,-0.18164993822574615,0.03360609710216522,0.011034558527171612,-0.0784791111946106,-0.12568862736225128,0.04687493294477463,0.060040488839149475,0.06192784383893013,-0.1085587590932846,-0.3163953125476837,-0.18780609965324402,-0.01025335118174553,-0.10472335666418076,0.08384168148040771,0.04064350947737694,0.09085090458393097,-0.3459288477897644,-0.16160672903060913,0.20244482159614563,0.07587635517120361,-0.142325758934021
DB00396,0.18949612975120544,0.33163830637931824,-0.4687238037586212,0.018196161836385727,-0.04300069808959961,0.25581929087638855,-0.05157340690493584,-0.25284314155578613,-0.1805657148361206,0.17931275069713593,0.053589075803756714,0.2968045473098755,0.27095770835876465,-0.005808859597891569,0.15184497833251953,-0.07104582339525223,-0.33339598774909973,0.2024601697921753,-0.20486335456371307,-0.04786614701151848,0.057108838111162186,0.3414023816585541,-0.05266949534416199,0.047517403960227966,0.17352963984012604,0.026710117235779762,-0.06807443499565125,-0.2550986409187317,-0.04025764390826225,0.09912621229887009,0.11348127573728561,0.05104804039001465,0.13950134813785553,-0.012021333910524845,0.05097482353448868,-0.21465568244457245,0.07019028812646866,-0.17000247538089752,-0.15500764548778534,0.13248616456985474,-0.28840434551239014,-0.08337332308292389,-0.16698777675628662,-0.22395890951156616,-0.32904505729675293,-0.2004770040512085,0.17111705243587494,0.007056486327201128,-0.16409650444984436,-0.071648009121418,-0.21254026889801025,0.37991562485694885,-0.37713631987571716,0.05998179316520691,-0.27383115887641907,0.3695470690727234,0.2560429871082306,-0.140242800116539,0.06232264265418053,-0.02693193592131138,0.0035248976200819016,-0.08110952377319336,0.18460316956043243,0.204863503575325,-0.0786626785993576,-0.13498154282569885,0.2495165914297104,-0.20761966705322266,-0.2767767012119293,0.09643066674470901,-0.02290474809706211,0.0352863185107708,0.3214004635810852,-0.051685914397239685,-0.2642691731452942,-0.22656749188899994,0.06036025658249855,0.15661711990833282,0.4147837162017822,-0.2147475928068161,0.08870776742696762,-0.10565103590488434,-0.027397243306040764,-0.20165696740150452,0.015107432380318642,0.10567785054445267,0.11485788226127625,-0.011656498536467552,-0.24977608025074005,-0.2199474424123764,-0.02210169844329357,-0.10457965731620789,0.09190847724676132,-0.016408488154411316,0.10039647668600082,-0.33244675397872925,-0.21654722094535828,0.2237214893102646,0.08854354172945023,-0.1590631902217865
DB00682,0.16059525310993195,0.29719096422195435,-0.48067349195480347,-0.10147349536418915,-0.025123290717601776,0.2202441245317459,0.0006891306256875396,0.051262978464365005,-0.24498996138572693,0.012677960097789764,0.10832423716783524,0.20152901113033295,0.2314593493938446,-0.10348132252693176,0.15856893360614777,-0.14061416685581207,-0.22575795650482178,0.08802731335163116,-0.1600518673658371,-0.06437928974628448,0.020974887534976006,0.36894088983535767,0.0032421464566141367,0.12699422240257263,0.012611053884029388,-0.17798539996147156,-0.031913746148347855,-0.3093934655189514,-0.031815897673368454,-0.08934054523706436,0.05788007378578186,0.15240603685379028,0.022006934508681297,-0.17823991179466248,0.10898928344249725,-0.27833834290504456,0.06348619610071182,-0.2863497734069824,-0.21207575500011444,0.1831776350736618,-0.2319021373987198,0.02011708915233612,-0.12346239387989044,-0.1364695131778717,-0.2669786512851715,-0.15603800117969513,0.16789914667606354,0.019974468275904655,-0.2764313220977783,-0.19537392258644104,-0.21294201910495758,0.29676079750061035,-0.20310644805431366,-0.0455223023891449,-0.19305071234703064,0.3147560954093933,0.27694424986839294,-0.23927052319049835,0.020189853385090828,-0.15188142657279968,0.0268795695155859,0.06598986685276031,0.03416421264410019,0.241690531373024,-0.09488887339830399,-0.09539002925157547,0.3238375782966614,-0.20124296844005585,-0.18462520837783813,-0.03209187090396881,0.16209444403648376,0.11297103762626648,0.14270977675914764,-0.018197018653154373,-0.19546428322792053,-0.0970611572265625,-0.07620149850845337,0.18885734677314758,0.28706976771354675,-0.15534833073616028,0.02316613867878914,0.09899462759494781,-0.10728753358125687,-0.057741712778806686,0.09285391867160797,0.021633222699165344,0.00504280487075448,-0.20317904651165009,-0.4096819758415222,-0.1894652098417282,0.005181167274713516,-0.1073591485619545,0.09932980686426163,0.049921371042728424,0.08151578158140182,-0.3836260735988617,-0.13417157530784607,0.1999901682138443,0.04899084195494652,-0.14052830636501312
DB00368,0.1593376249074936,0.290629118680954,-0.4513745605945587,-0.05942688509821892,-0.024539628997445107,0.23433582484722137,-0.01717597059905529,-0.003041106043383479,-0.23250450193881989,0.06049652770161629,0.0804935097694397,0.20599447190761566,0.23916737735271454,-0.07031799852848053,0.1519559770822525,-0.10154362767934799,-0.2157033234834671,0.09301498532295227,-0.15324021875858307,-0.04701577499508858,0.04219162091612816,0.33012330532073975,-0.005831656977534294,0.11263085156679153,0.06007739529013634,-0.11772417277097702,-0.05652298405766487,-0.2905273139476776,-0.017187468707561493,-0.039510902017354965,0.07456260919570923,0.1206800639629364,0.03829659894108772,-0.1242474690079689,0.08320373296737671,-0.26327183842658997,0.05042349919676781,-0.24484385550022125,-0.1880442351102829,0.1489008367061615,-0.24029849469661713,-0.008837045170366764,-0.13303840160369873,-0.15756551921367645,-0.25551456212997437,-0.14249348640441895,0.15585486590862274,0.02607068233191967,-0.23717354238033295,-0.13654978573322296,-0.2122185230255127,0.29073166847229004,-0.23179753124713898,-0.005170613061636686,-0.1914273053407669,0.29841893911361694,0.2551557123661041,-0.21179592609405518,0.0393148809671402,-0.09327440708875656,0.03533017262816429,0.033763717859983444,0.04184112325310707,0.2178584784269333,-0.06027967110276222,-0.08675666898488998,0.2625855505466461,-0.16467249393463135,-0.19490750133991241,0.010863871313631535,0.11663689464330673,0.09212624281644821,0.18066167831420898,-0.021344898268580437,-0.19459591805934906,-0.11235848069190979,-0.04474392905831337,0.16306346654891968,0.2998083531856537,-0.15776823461055756,0.022197186946868896,0.0422762930393219,-0.10216871649026871,-0.10660004615783691,0.04869486391544342,0.03612477704882622,0.023675285279750824,-0.13383573293685913,-0.3261927664279938,-0.16968490183353424,0.005046823527663946,-0.11416378617286682,0.06303851306438446,0.06938610225915909,0.08254449814558029,-0.3553290069103241,-0.1420687437057495,0.19431520998477936,0.05087340250611305,-0.12862499058246613
DB01551,0.18583913147449493,0.34771981835365295,-0.49785223603248596,-0.012487850151956081,-0.03802108392119408,0.2572643458843231,-0.06004852056503296,-0.15322516858577728,-0.2295917421579361,0.1305752992630005,0.09372986108064651,0.27885347604751587,0.2959279716014862,-0.05696416273713112,0.16030679643154144,-0.07484463602304459,-0.29882803559303284,0.1654045283794403,-0.19198594987392426,-0.04492895305156708,0.07841823250055313,0.3705936372280121,-0.04029785096645355,0.10004585236310959,0.13599137961864471,-0.05864027887582779,-0.044221244752407074,-0.317785382270813,-0.03073260374367237,0.03714970126748085,0.09463807940483093,0.08460336178541183,0.11597049981355667,-0.0660019963979721,0.07449562102556229,-0.27543899416923523,0.06338175386190414,-0.2542051076889038,-0.19265753030776978,0.14760847389698029,-0.3092546761035919,-0.05394800007343292,-0.14981238543987274,-0.24165116250514984,-0.327469140291214,-0.1813340187072754,0.18019947409629822,0.026450155302882195,-0.23833252489566803,-0.10857702046632767,-0.24172477424144745,0.36579740047454834,-0.3466782569885254,0.020972734317183495,-0.24896439909934998,0.3625038266181946,0.2718294858932495,-0.1948748528957367,0.08024860173463821,-0.05401510372757912,0.005275786388665438,-0.04595063999295235,0.11855552345514297,0.21816562116146088,-0.09627633541822433,-0.12167368084192276,0.247468963265419,-0.20968331396579742,-0.2690542936325073,0.05547209829092026,0.04457182064652443,0.06269045919179916,0.28746750950813293,-0.039753202348947525,-0.2483019232749939,-0.1883533000946045,0.0026318123564124107,0.16574443876743317,0.4074915647506714,-0.2089425027370453,0.07138050347566605,-0.057855453342199326,-0.07204050570726395,-0.1640065610408783,0.029076101258397102,0.0729207694530487,0.0964379757642746,-0.06241677701473236,-0.29182055592536926,-0.20851415395736694,0.001870768261142075,-0.11916033923625946,0.06905436515808105,0.02643461711704731,0.09574473649263382,-0.3823959529399872,-0.20958571135997772,0.22300076484680176,0.06871319562196732,-0.1532747596502304
DB00605,0.1712341159582138,0.30525168776512146,-0.46350497007369995,-0.057986076921224594,-0.02155201882123947,0.23489797115325928,-0.00933461356908083,-0.030385829508304596,-0.2403523325920105,0.06266670674085617,0.08544738590717316,0.21122032403945923,0.23633529245853424,-0.045498915016651154,0.15822918713092804,-0.11852369457483292,-0.22725065052509308,0.12567298114299774,-0.17768390476703644,-0.05074535310268402,0.026635434478521347,0.34308430552482605,-0.012922345660626888,0.10134874284267426,0.06616143137216568,-0.11745014786720276,-0.0806066244840622,-0.2701013684272766,-0.03175688907504082,-0.0248535368591547,0.07955700159072876,0.127554252743721,0.040362633764743805,-0.13440252840518951,0.0765460878610611,-0.24305638670921326,0.052567221224308014,-0.22261762619018555,-0.19163165986537933,0.1761353611946106,-0.22644102573394775,-0.023165805265307426,-0.15234558284282684,-0.1234985888004303,-0.2612888514995575,-0.1643822342157364,0.17567874491214752,-0.0028448072262108326,-0.21914494037628174,-0.14945025742053986,-0.2034245729446411,0.3139020800590515,-0.25765150785446167,0.001353657804429531,-0.19898805022239685,0.3134773373603821,0.2846936285495758,-0.19734525680541992,0.022739063948392868,-0.10731662809848785,0.023949842900037766,0.05357731506228447,0.09816599637269974,0.23123911023139954,-0.04954470694065094,-0.10608972609043121,0.3042945861816406,-0.17864255607128143,-0.20073044300079346,0.03490200638771057,0.10730255395174026,0.09260180592536926,0.19000929594039917,-0.05046407878398895,-0.22103330492973328,-0.12463769316673279,-0.03379363939166069,0.186202272772789,0.30797281861305237,-0.1696409434080124,0.020507540553808212,0.04560136795043945,-0.08674002438783646,-0.1181095540523529,0.06498575955629349,0.06375329196453094,0.03006255440413952,-0.15316244959831238,-0.36045700311660767,-0.2005644589662552,-0.002620827639475465,-0.08782097697257996,0.1188214048743248,0.026889275759458542,0.08740446716547012,-0.37227505445480347,-0.13832242786884308,0.1926848441362381,0.07183311134576797,-0.14585542678833008
DB01320,0.1718752086162567,0.30193936824798584,-0.4601300358772278,-0.05961909145116806,-0.026428578421473503,0.23773783445358276,-0.004536481108516455,-0.03306524455547333,-0.20915357768535614,0.06016254052519798,0.09906274080276489,0.23338139057159424,0.23752738535404205,-0.06404346227645874,0.16942617297172546,-0.10713689029216766,-0.23967045545578003,0.1485283225774765,-0.16313046216964722,-0.046345148235559464,0.03555024042725563,0.3429875671863556,-0.034324582666158676,0.10028941184282303,0.08496036380529404,-0.11518775671720505,-0.07155396044254303,-0.28632721304893494,-0.017186617478728294,-0.015120293013751507,0.06094199791550636,0.1096794381737709,0.06772301346063614,-0.1254236400127411,0.07947433739900589,-0.2603118419647217,0.0342678539454937,-0.23897592723369598,-0.18368490040302277,0.16868847608566284,-0.24915121495723724,-0.03589814156293869,-0.14887847006320953,-0.13930781185626984,-0.2796025574207306,-0.16290317475795746,0.16606438159942627,0.001507263514213264,-0.21904468536376953,-0.1315014511346817,-0.22479824721813202,0.3043251931667328,-0.2636951208114624,-0.003158560721203685,-0.19478322565555573,0.31858769059181213,0.2592725455760956,-0.17848657071590424,0.036001235246658325,-0.11038323491811752,0.03360835835337639,0.04532942175865173,0.1078205406665802,0.21896962821483612,-0.08908194303512573,-0.11603734642267227,0.2849518060684204,-0.18695837259292603,-0.20792962610721588,0.023959288373589516,0.08956459909677505,0.08233026415109634,0.2259293496608734,-0.033424943685531616,-0.2442057728767395,-0.12569166719913483,-0.03565139323472977,0.17190121114253998,0.32050228118896484,-0.17763471603393555,0.03630742430686951,0.037070389837026596,-0.07933551073074341,-0.10732767730951309,0.05316315218806267,0.04954293370246887,0.0745687484741211,-0.13228867948055267,-0.3293989300727844,-0.18692979216575623,-0.002182295313104987,-0.08903415501117706,0.10465089976787567,0.046443309634923935,0.08269554376602173,-0.36100274324417114,-0.15709364414215088,0.19534732401371002,0.0795939564704895,-0.15385249257087708
